#pragma once

namespace Eloquent {
    namespace ML {
        namespace Port {
            class RandomForestRegressor {

                 public:
                /**
                * Predict class for features vector
                */

                    double score(double * input) {
                        double var0;
                        if (input[1] <= -0.6364683210849762) {
                            if (input[1] <= -1.2439382672309875) {
                                if (input[1] <= -1.2967617511749268) {
                                    var0 = 30.0;
                                } else {
                                    var0 = 28.0;
                                }
                            } else {
                                if (input[1] <= -0.8424798846244812) {
                                    if (input[1] <= -1.1277266144752502) {
                                        var0 = 26.0;
                                    } else {
                                        if (input[1] <= -1.0537737607955933) {
                                            var0 = 25.0;
                                        } else {
                                            var0 = 24.0;
                                        }
                                    }
                                } else {
                                    if (input[1] <= -0.6787271201610565) {
                                        if (input[3] <= 1.11909881234169) {
                                            var0 = 22.0;
                                        } else {
                                            var0 = 21.0;
                                        }
                                    } else {
                                        var0 = 23.0;
                                    }
                                }
                            }
                        } else {
                            if (input[7] <= 0.1235494613647461) {
                                if (input[1] <= 1.2229179739952087) {
                                    if (input[1] <= 0.09777796268463135) {
                                        if (input[8] <= 0.9215707629919052) {
                                            if (input[4] <= 0.14740151166915894) {
                                                var0 = 14.0;
                                            } else {
                                                if (input[0] <= 0.0696929395198822) {
                                                    var0 = 16.0;
                                                } else {
                                                    var0 = 17.0;
                                                }
                                            }
                                        } else {
                                            var0 = 20.0;
                                        }
                                    } else {
                                        if (input[7] <= -1.8935101628303528) {
                                            if (input[0] <= -0.6728355586528778) {
                                                var0 = 13.0;
                                            } else {
                                                var0 = 12.0;
                                            }
                                        } else {
                                            if (input[7] <= -1.6438158750534058) {
                                                if (input[1] <= 0.7527890205383301) {
                                                    var0 = 10.0;
                                                } else {
                                                    var0 = 0.0;
                                                }
                                            } else {
                                                var0 = 10.0;
                                            }
                                        }
                                    }
                                } else {
                                    if (input[0] <= -1.6516231298446655) {
                                        var0 = 0.0;
                                    } else {
                                        if (input[0] <= -1.111602395772934) {
                                            if (input[8] <= 0.12475898861885071) {
                                                var0 = 10.0;
                                            } else {
                                                var0 = 5.0;
                                            }
                                        } else {
                                            var0 = 0.0;
                                        }
                                    }
                                }
                            } else {
                                if (input[8] <= 1.6218220591545105) {
                                    if (input[8] <= 1.4556657671928406) {
                                        var0 = 0.0;
                                    } else {
                                        if (input[1] <= 0.42000116407871246) {
                                            if (input[3] <= 1.102403700351715) {
                                                if (input[0] <= -1.8710065484046936) {
                                                    var0 = 18.0;
                                                } else {
                                                    var0 = 19.0;
                                                }
                                            } else {
                                                if (input[0] <= -1.1284780502319336) {
                                                    var0 = 12.0;
                                                } else {
                                                    if (input[4] <= -1.3335883617401123) {
                                                        var0 = 14.0;
                                                    } else {
                                                        var0 = 13.0;
                                                    }
                                                }
                                            }
                                        } else {
                                            if (input[0] <= 0.37345460429787636) {
                                                if (input[0] <= -1.5503692626953125) {
                                                    if (input[0] <= -1.7697526812553406) {
                                                        var0 = 0.0;
                                                    } else {
                                                        if (input[3] <= 1.6423652172088623) {
                                                            var0 = 10.0;
                                                        } else {
                                                            var0 = 0.0;
                                                        }
                                                    }
                                                } else {
                                                    var0 = 0.0;
                                                }
                                            } else {
                                                if (input[1] <= 1.201788604259491) {
                                                    var0 = 11.0;
                                                } else {
                                                    var0 = 12.0;
                                                }
                                            }
                                        }
                                    }
                                } else {
                                    if (input[1] <= 0.02382510155439377) {
                                        if (input[1] <= -0.3195274844765663) {
                                            if (input[1] <= -0.5255390256643295) {
                                                var0 = 20.0;
                                            } else {
                                                var0 = 19.0;
                                            }
                                        } else {
                                            if (input[0] <= 1.149734377861023) {
                                                if (input[3] <= 1.9179879426956177) {
                                                    if (input[1] <= -0.034280721098184586) {
                                                        var0 = 16.0;
                                                    } else {
                                                        var0 = 15.0;
                                                    }
                                                } else {
                                                    var0 = 17.0;
                                                }
                                            } else {
                                                var0 = 19.0;
                                            }
                                        }
                                    } else {
                                        if (input[0] <= 0.30595202278345823) {
                                            if (input[1] <= 0.2826601192355156) {
                                                if (input[1] <= 0.09777796640992165) {
                                                    var0 = 14.0;
                                                } else {
                                                    var0 = 13.0;
                                                }
                                            } else {
                                                if (input[1] <= 0.5203657448291779) {
                                                    var0 = 11.0;
                                                } else {
                                                    var0 = 10.0;
                                                }
                                            }
                                        } else {
                                            if (input[1] <= 1.497600018978119) {
                                                if (input[3] <= 1.6423652172088623) {
                                                    var0 = 13.0;
                                                } else {
                                                    if (input[1] <= 0.7633537352085114) {
                                                        var0 = 12.0;
                                                    } else {
                                                        var0 = 13.0;
                                                    }
                                                }
                                            } else {
                                                var0 = 14.0;
                                            }
                                        }
                                    }
                                }
                            }
                        }
                        double var1;
                        if (input[1] <= -0.6364683210849762) {
                            if (input[1] <= -1.2703500390052795) {
                                if (input[4] <= -1.3335883617401123) {
                                    if (input[3] <= 1.3723844289779663) {
                                        var1 = 30.0;
                                    } else {
                                        var1 = 28.0;
                                    }
                                } else {
                                    if (input[0] <= -2.022887349128723) {
                                        var1 = 28.0;
                                    } else {
                                        if (input[3] <= 2.4412543773651123) {
                                            var1 = 30.0;
                                        } else {
                                            if (input[1] <= -1.7404789328575134) {
                                                var1 = 30.0;
                                            } else {
                                                var1 = 29.0;
                                            }
                                        }
                                    }
                                }
                            } else {
                                if (input[1] <= -1.0590561032295227) {
                                    if (input[8] <= 0.7448628097772598) {
                                        var1 = 29.0;
                                    } else {
                                        var1 = 26.0;
                                    }
                                } else {
                                    if (input[1] <= -0.8371975421905518) {
                                        if (input[1] <= -0.9005857110023499) {
                                            var1 = 24.0;
                                        } else {
                                            var1 = 23.0;
                                        }
                                    } else {
                                        if (input[7] <= 0.6059218198060989) {
                                            if (input[1] <= -0.6998564898967743) {
                                                var1 = 22.0;
                                            } else {
                                                var1 = 23.0;
                                            }
                                        } else {
                                            var1 = 21.0;
                                        }
                                    }
                                }
                            }
                        } else {
                            if (input[7] <= 0.1235494613647461) {
                                if (input[1] <= 1.2229179739952087) {
                                    if (input[1] <= 0.11362500861287117) {
                                        if (input[7] <= -1.3077110052108765) {
                                            var1 = 14.0;
                                        } else {
                                            if (input[0] <= -0.6390842921100557) {
                                                var1 = 20.0;
                                            } else {
                                                if (input[0] <= 0.0696929395198822) {
                                                    var1 = 16.0;
                                                } else {
                                                    var1 = 17.0;
                                                }
                                            }
                                        }
                                    } else {
                                        if (input[7] <= -1.8935101628303528) {
                                            if (input[1] <= 0.21398960798978806) {
                                                var1 = 13.0;
                                            } else {
                                                var1 = 12.0;
                                            }
                                        } else {
                                            if (input[7] <= -1.6438158750534058) {
                                                if (input[0] <= -0.6222086101770401) {
                                                    var1 = 10.0;
                                                } else {
                                                    var1 = 0.0;
                                                }
                                            } else {
                                                var1 = 10.0;
                                            }
                                        }
                                    }
                                } else {
                                    if (input[3] <= 1.3723844587802887) {
                                        var1 = 5.0;
                                    } else {
                                        if (input[1] <= 1.909623146057129) {
                                            var1 = 0.0;
                                        } else {
                                            if (input[0] <= -1.9385091066360474) {
                                                var1 = 0.0;
                                            } else {
                                                var1 = 10.0;
                                            }
                                        }
                                    }
                                }
                            } else {
                                if (input[8] <= 1.6218220591545105) {
                                    if (input[8] <= 1.4556657671928406) {
                                        var1 = 0.0;
                                    } else {
                                        if (input[1] <= 0.4992363750934601) {
                                            if (input[1] <= 0.2456836998462677) {
                                                var1 = 13.0;
                                            } else {
                                                if (input[3] <= 1.102403700351715) {
                                                    var1 = 11.0;
                                                } else {
                                                    var1 = 12.0;
                                                }
                                            }
                                        } else {
                                            if (input[0] <= 0.390330258756876) {
                                                if (input[0] <= -0.28469567000865936) {
                                                    if (input[0] <= -1.5503692626953125) {
                                                        if (input[0] <= -1.600996196269989) {
                                                            if (input[1] <= 1.0010593831539154) {
                                                                if (input[3] <= 0.8267809748649597) {
                                                                    var1 = 0.0;
                                                                } else {
                                                                    var1 = 10.0;
                                                                }
                                                            } else {
                                                                var1 = 0.0;
                                                            }
                                                        } else {
                                                            var1 = 10.0;
                                                        }
                                                    } else {
                                                        var1 = 0.0;
                                                    }
                                                } else {
                                                    if (input[0] <= -0.14969048462808132) {
                                                        var1 = 10.0;
                                                    } else {
                                                        var1 = 0.0;
                                                    }
                                                }
                                            } else {
                                                var1 = 12.0;
                                            }
                                        }
                                    }
                                } else {
                                    if (input[1] <= 0.023825100623071194) {
                                        if (input[0] <= 0.7447188370861113) {
                                            if (input[1] <= -0.3142451196908951) {
                                                if (input[1] <= -0.47799789905548096) {
                                                    var1 = 20.0;
                                                } else {
                                                    var1 = 18.0;
                                                }
                                            } else {
                                                if (input[1] <= -0.21916288137435913) {
                                                    var1 = 17.0;
                                                } else {
                                                    var1 = 16.0;
                                                }
                                            }
                                        } else {
                                            if (input[3] <= 1.9179879426956177) {
                                                if (input[0] <= 1.5209986567497253) {
                                                    var1 = 19.0;
                                                } else {
                                                    var1 = 18.0;
                                                }
                                            } else {
                                                var1 = 20.0;
                                            }
                                        }
                                    } else {
                                        if (input[1] <= 0.3249189108610153) {
                                            if (input[1] <= 0.1294720508158207) {
                                                var1 = 14.0;
                                            } else {
                                                var1 = 13.0;
                                            }
                                        } else {
                                            if (input[0] <= 0.5590867251157761) {
                                                if (input[4] <= -0.9477044641971588) {
                                                    var1 = 10.0;
                                                } else {
                                                    var1 = 11.0;
                                                }
                                            } else {
                                                if (input[0] <= 1.0484804809093475) {
                                                    var1 = 12.0;
                                                } else {
                                                    var1 = 14.0;
                                                }
                                            }
                                        }
                                    }
                                }
                            }
                        }
                        double var2;
                        if (input[1] <= -0.6681624054908752) {
                            if (input[1] <= -1.2703500390052795) {
                                if (input[0] <= -0.5884573310613632) {
                                    if (input[1] <= -1.597855567932129) {
                                        var2 = 30.0;
                                    } else {
                                        var2 = 28.0;
                                    }
                                } else {
                                    var2 = 30.0;
                                }
                            } else {
                                if (input[1] <= -0.9269974231719971) {
                                    if (input[1] <= -1.138291358947754) {
                                        var2 = 26.0;
                                    } else {
                                        if (input[4] <= -1.3335883617401123) {
                                            var2 = 25.0;
                                        } else {
                                            var2 = 24.0;
                                        }
                                    }
                                } else {
                                    if (input[1] <= -0.8371975421905518) {
                                        var2 = 23.0;
                                    } else {
                                        if (input[3] <= 1.11909881234169) {
                                            var2 = 22.0;
                                        } else {
                                            var2 = 21.0;
                                        }
                                    }
                                }
                            }
                        } else {
                            if (input[7] <= -0.12614484131336212) {
                                if (input[1] <= 0.47810696065425873) {
                                    if (input[7] <= -1.3077110052108765) {
                                        if (input[0] <= -0.6728355586528778) {
                                            if (input[1] <= 0.10834265872836113) {
                                                var2 = 14.0;
                                            } else {
                                                var2 = 13.0;
                                            }
                                        } else {
                                            var2 = 12.0;
                                        }
                                    } else {
                                        if (input[1] <= -0.12408062443137169) {
                                            var2 = 16.0;
                                        } else {
                                            var2 = 17.0;
                                        }
                                    }
                                } else {
                                    if (input[0] <= -0.31844695657491684) {
                                        if (input[8] <= 0.12475898861885071) {
                                            if (input[1] <= 0.7527890205383301) {
                                                var2 = 10.0;
                                            } else {
                                                var2 = 0.0;
                                            }
                                        } else {
                                            var2 = 5.0;
                                        }
                                    } else {
                                        var2 = 10.0;
                                    }
                                }
                            } else {
                                if (input[8] <= 1.6218220591545105) {
                                    if (input[8] <= 1.4556657671928406) {
                                        var2 = 0.0;
                                    } else {
                                        if (input[1] <= 0.42000116407871246) {
                                            if (input[3] <= 1.102403700351715) {
                                                if (input[0] <= -1.8710065484046936) {
                                                    var2 = 18.0;
                                                } else {
                                                    var2 = 19.0;
                                                }
                                            } else {
                                                if (input[1] <= 0.10306030884385109) {
                                                    var2 = 14.0;
                                                } else {
                                                    if (input[1] <= 0.2456836998462677) {
                                                        var2 = 13.0;
                                                    } else {
                                                        var2 = 12.0;
                                                    }
                                                }
                                            }
                                        } else {
                                            if (input[0] <= 0.37345460429787636) {
                                                if (input[0] <= -0.28469567000865936) {
                                                    if (input[1] <= 1.7300233244895935) {
                                                        var2 = 0.0;
                                                    } else {
                                                        if (input[1] <= 1.80925852060318) {
                                                            var2 = 10.0;
                                                        } else {
                                                            var2 = 0.0;
                                                        }
                                                    }
                                                } else {
                                                    if (input[0] <= -0.1665661334991455) {
                                                        var2 = 10.0;
                                                    } else {
                                                        var2 = 0.0;
                                                    }
                                                }
                                            } else {
                                                if (input[1] <= 1.201788604259491) {
                                                    var2 = 11.0;
                                                } else {
                                                    var2 = 12.0;
                                                }
                                            }
                                        }
                                    }
                                } else {
                                    if (input[1] <= 0.029107448644936085) {
                                        if (input[1] <= -0.4093273729085922) {
                                            if (input[1] <= -0.541386067867279) {
                                                var2 = 20.0;
                                            } else {
                                                var2 = 19.0;
                                            }
                                        } else {
                                            if (input[0] <= -0.4872034341096878) {
                                                var2 = 16.0;
                                            } else {
                                                if (input[1] <= -0.3142451196908951) {
                                                    var2 = 18.0;
                                                } else {
                                                    if (input[0] <= 0.7615945213474333) {
                                                        var2 = 17.0;
                                                    } else {
                                                        var2 = 18.0;
                                                    }
                                                }
                                            }
                                        }
                                    } else {
                                        if (input[1] <= 0.36717768013477325) {
                                            if (input[1] <= 0.09777796640992165) {
                                                var2 = 14.0;
                                            } else {
                                                var2 = 13.0;
                                            }
                                        } else {
                                            if (input[1] <= 0.5520598292350769) {
                                                var2 = 11.0;
                                            } else {
                                                var2 = 10.0;
                                            }
                                        }
                                    }
                                }
                            }
                        }
                        double var3;
                        if (input[1] <= -0.6734447777271271) {
                            if (input[1] <= -1.0960325598716736) {
                                if (input[8] <= 1.6218220591545105) {
                                    if (input[3] <= 1.3723844289779663) {
                                        var3 = 30.0;
                                    } else {
                                        if (input[1] <= -1.6506790518760681) {
                                            var3 = 30.0;
                                        } else {
                                            if (input[7] <= -0.3259500563144684) {
                                                var3 = 29.0;
                                            } else {
                                                var3 = 28.0;
                                            }
                                        }
                                    }
                                } else {
                                    if (input[1] <= -1.6137025952339172) {
                                        var3 = 30.0;
                                    } else {
                                        if (input[1] <= -1.2333735823631287) {
                                            var3 = 28.0;
                                        } else {
                                            var3 = 26.0;
                                        }
                                    }
                                }
                            } else {
                                if (input[1] <= -0.8424798846244812) {
                                    if (input[4] <= -1.3335883617401123) {
                                        var3 = 25.0;
                                    } else {
                                        var3 = 24.0;
                                    }
                                } else {
                                    if (input[0] <= -0.7740894705057144) {
                                        var3 = 22.0;
                                    } else {
                                        var3 = 21.0;
                                    }
                                }
                            }
                        } else {
                            if (input[7] <= 0.1235494613647461) {
                                if (input[1] <= 0.5362127870321274) {
                                    if (input[7] <= -1.8935101628303528) {
                                        if (input[1] <= 0.10834265872836113) {
                                            var3 = 14.0;
                                        } else {
                                            if (input[1] <= 0.21398960798978806) {
                                                var3 = 13.0;
                                            } else {
                                                var3 = 12.0;
                                            }
                                        }
                                    } else {
                                        if (input[8] <= 0.7667377144098282) {
                                            if (input[0] <= 0.0696929395198822) {
                                                var3 = 16.0;
                                            } else {
                                                var3 = 17.0;
                                            }
                                        } else {
                                            var3 = 20.0;
                                        }
                                    }
                                } else {
                                    if (input[0] <= -0.3015713021159172) {
                                        if (input[0] <= -1.2297319173812866) {
                                            if (input[0] <= -1.702250063419342) {
                                                var3 = 0.0;
                                            } else {
                                                if (input[1] <= 1.872646689414978) {
                                                    var3 = 5.0;
                                                } else {
                                                    var3 = 10.0;
                                                }
                                            }
                                        } else {
                                            var3 = 0.0;
                                        }
                                    } else {
                                        var3 = 10.0;
                                    }
                                }
                            } else {
                                if (input[8] <= 1.6218220591545105) {
                                    if (input[8] <= 1.4556657671928406) {
                                        var3 = 0.0;
                                    } else {
                                        if (input[1] <= 0.44113054871559143) {
                                            if (input[1] <= -0.15577470930293202) {
                                                if (input[0] <= -1.8710065484046936) {
                                                    var3 = 18.0;
                                                } else {
                                                    var3 = 19.0;
                                                }
                                            } else {
                                                if (input[1] <= 0.2456836998462677) {
                                                    if (input[0] <= -1.0103484690189362) {
                                                        var3 = 13.0;
                                                    } else {
                                                        var3 = 14.0;
                                                    }
                                                } else {
                                                    if (input[4] <= -1.3335883617401123) {
                                                        var3 = 12.0;
                                                    } else {
                                                        var3 = 11.0;
                                                    }
                                                }
                                            }
                                        } else {
                                            if (input[0] <= 0.37345460429787636) {
                                                if (input[0] <= -1.5334935784339905) {
                                                    if (input[0] <= -1.6853744387626648) {
                                                        var3 = 0.0;
                                                    } else {
                                                        var3 = 10.0;
                                                    }
                                                } else {
                                                    var3 = 0.0;
                                                }
                                            } else {
                                                var3 = 11.0;
                                            }
                                        }
                                    }
                                } else {
                                    if (input[1] <= 0.023825100623071194) {
                                        if (input[3] <= 1.102403700351715) {
                                            if (input[0] <= 1.0991074740886688) {
                                                if (input[1] <= -0.18218644708395004) {
                                                    var3 = 17.0;
                                                } else {
                                                    if (input[1] <= -0.034280721098184586) {
                                                        var3 = 16.0;
                                                    } else {
                                                        var3 = 15.0;
                                                    }
                                                }
                                            } else {
                                                var3 = 18.0;
                                            }
                                        } else {
                                            if (input[0] <= 1.149734377861023) {
                                                if (input[1] <= -0.28255104273557663) {
                                                    if (input[0] <= -0.9259703010320663) {
                                                        if (input[0] <= -2.006011724472046) {
                                                            var3 = 20.0;
                                                        } else {
                                                            var3 = 19.0;
                                                        }
                                                    } else {
                                                        var3 = 18.0;
                                                    }
                                                } else {
                                                    if (input[0] <= 0.0696929395198822) {
                                                        var3 = 16.0;
                                                    } else {
                                                        var3 = 17.0;
                                                    }
                                                }
                                            } else {
                                                var3 = 20.0;
                                            }
                                        }
                                    } else {
                                        if (input[1] <= 0.2615307420492172) {
                                            if (input[4] <= -1.3335883617401123) {
                                                var3 = 14.0;
                                            } else {
                                                var3 = 13.0;
                                            }
                                        } else {
                                            if (input[1] <= 0.7052479088306427) {
                                                if (input[1] <= 0.37774237990379333) {
                                                    var3 = 12.0;
                                                } else {
                                                    var3 = 11.0;
                                                }
                                            } else {
                                                var3 = 10.0;
                                            }
                                        }
                                    }
                                }
                            }
                        }
                        double var4;
                        if (input[1] <= -0.641750693321228) {
                            if (input[1] <= -1.2439382672309875) {
                                if (input[8] <= 1.6218220591545105) {
                                    if (input[0] <= -1.381612777709961) {
                                        if (input[1] <= -1.7404789328575134) {
                                            var4 = 30.0;
                                        } else {
                                            var4 = 29.0;
                                        }
                                    } else {
                                        var4 = 30.0;
                                    }
                                } else {
                                    if (input[1] <= -1.6137025952339172) {
                                        var4 = 30.0;
                                    } else {
                                        var4 = 28.0;
                                    }
                                }
                            } else {
                                if (input[1] <= -1.0484914183616638) {
                                    if (input[1] <= -1.138291358947754) {
                                        var4 = 26.0;
                                    } else {
                                        var4 = 25.0;
                                    }
                                } else {
                                    if (input[1] <= -0.9005857110023499) {
                                        var4 = 24.0;
                                    } else {
                                        if (input[3] <= 1.6423652172088623) {
                                            var4 = 23.0;
                                        } else {
                                            var4 = 21.0;
                                        }
                                    }
                                }
                            }
                        } else {
                            if (input[7] <= 0.1235494613647461) {
                                if (input[1] <= 1.2229179739952087) {
                                    if (input[1] <= 0.10834265872836113) {
                                        if (input[7] <= -1.8935101628303528) {
                                            var4 = 14.0;
                                        } else {
                                            if (input[7] <= -0.37583915889263153) {
                                                if (input[1] <= -0.1135159321129322) {
                                                    var4 = 16.0;
                                                } else {
                                                    var4 = 17.0;
                                                }
                                            } else {
                                                var4 = 20.0;
                                            }
                                        }
                                    } else {
                                        if (input[8] <= -0.0413973331451416) {
                                            if (input[8] <= -0.3291885256767273) {
                                                var4 = 10.0;
                                            } else {
                                                if (input[1] <= 0.7527890205383301) {
                                                    var4 = 10.0;
                                                } else {
                                                    var4 = 0.0;
                                                }
                                            }
                                        } else {
                                            if (input[1] <= 0.21398960798978806) {
                                                var4 = 13.0;
                                            } else {
                                                var4 = 12.0;
                                            }
                                        }
                                    }
                                } else {
                                    if (input[0] <= -1.6516231298446655) {
                                        var4 = 0.0;
                                    } else {
                                        if (input[0] <= -1.2297319173812866) {
                                            if (input[8] <= 0.12475898861885071) {
                                                var4 = 10.0;
                                            } else {
                                                var4 = 5.0;
                                            }
                                        } else {
                                            var4 = 0.0;
                                        }
                                    }
                                }
                            } else {
                                if (input[8] <= 1.6218220591545105) {
                                    if (input[8] <= 1.4556657671928406) {
                                        var4 = 0.0;
                                    } else {
                                        if (input[1] <= 0.44113054871559143) {
                                            if (input[1] <= -0.2561393198557198) {
                                                var4 = 19.0;
                                            } else {
                                                if (input[1] <= 0.2456836998462677) {
                                                    if (input[1] <= 0.07136622397229075) {
                                                        var4 = 14.0;
                                                    } else {
                                                        var4 = 13.0;
                                                    }
                                                } else {
                                                    if (input[0] <= -1.6178718209266663) {
                                                        var4 = 11.0;
                                                    } else {
                                                        var4 = 12.0;
                                                    }
                                                }
                                            }
                                        } else {
                                            if (input[0] <= 0.17094682529568672) {
                                                if (input[4] <= -1.3335883617401123) {
                                                    if (input[3] <= 1.3723844289779663) {
                                                        if (input[1] <= 1.9254701733589172) {
                                                            if (input[1] <= 0.9746476411819458) {
                                                                var4 = 0.0;
                                                            } else {
                                                                if (input[0] <= -1.7697526812553406) {
                                                                    var4 = 0.0;
                                                                } else {
                                                                    var4 = 10.0;
                                                                }
                                                            }
                                                        } else {
                                                            var4 = 0.0;
                                                        }
                                                    } else {
                                                        var4 = 0.0;
                                                    }
                                                } else {
                                                    var4 = 0.0;
                                                }
                                            } else {
                                                if (input[3] <= 0.8267809748649597) {
                                                    var4 = 12.0;
                                                } else {
                                                    var4 = 10.0;
                                                }
                                            }
                                        }
                                    }
                                } else {
                                    if (input[1] <= 0.02382510155439377) {
                                        if (input[3] <= 1.102403700351715) {
                                            if (input[1] <= -0.034280721098184586) {
                                                var4 = 16.0;
                                            } else {
                                                var4 = 15.0;
                                            }
                                        } else {
                                            if (input[1] <= -0.055410111322999) {
                                                if (input[3] <= 1.9179879426956177) {
                                                    var4 = 19.0;
                                                } else {
                                                    if (input[1] <= -0.3142451271414757) {
                                                        if (input[1] <= -0.5255390256643295) {
                                                            var4 = 20.0;
                                                        } else {
                                                            var4 = 19.0;
                                                        }
                                                    } else {
                                                        var4 = 20.0;
                                                    }
                                                }
                                            } else {
                                                var4 = 17.0;
                                            }
                                        }
                                    } else {
                                        if (input[1] <= 0.3354835957288742) {
                                            if (input[1] <= 0.09777796640992165) {
                                                var4 = 14.0;
                                            } else {
                                                var4 = 13.0;
                                            }
                                        } else {
                                            if (input[0] <= 0.9472265988588333) {
                                                if (input[1] <= 0.5520598292350769) {
                                                    var4 = 11.0;
                                                } else {
                                                    var4 = 10.0;
                                                }
                                            } else {
                                                var4 = 14.0;
                                            }
                                        }
                                    }
                                }
                            }
                        }
                        double var5;
                        if (input[1] <= -0.641750693321228) {
                            if (input[1] <= -1.2439382672309875) {
                                if (input[8] <= 1.6218220591545105) {
                                    if (input[0] <= -1.381612777709961) {
                                        if (input[1] <= -1.7404789328575134) {
                                            var5 = 30.0;
                                        } else {
                                            var5 = 29.0;
                                        }
                                    } else {
                                        var5 = 30.0;
                                    }
                                } else {
                                    if (input[1] <= -1.5820085406303406) {
                                        var5 = 30.0;
                                    } else {
                                        var5 = 28.0;
                                    }
                                }
                            } else {
                                if (input[1] <= -1.0590561032295227) {
                                    if (input[4] <= -1.0781120359897614) {
                                        var5 = 26.0;
                                    } else {
                                        var5 = 29.0;
                                    }
                                } else {
                                    if (input[1] <= -0.8002210855484009) {
                                        if (input[1] <= -0.8530445694923401) {
                                            var5 = 24.0;
                                        } else {
                                            var5 = 23.0;
                                        }
                                    } else {
                                        if (input[7] <= 0.6059218198060989) {
                                            if (input[4] <= -1.0781120359897614) {
                                                var5 = 23.0;
                                            } else {
                                                var5 = 22.0;
                                            }
                                        } else {
                                            var5 = 21.0;
                                        }
                                    }
                                }
                            }
                        } else {
                            if (input[7] <= 0.1235494613647461) {
                                if (input[1] <= 1.3180002570152283) {
                                    if (input[1] <= 0.10834265872836113) {
                                        if (input[1] <= 0.039672143291682005) {
                                            if (input[1] <= -0.20859818905591965) {
                                                var5 = 20.0;
                                            } else {
                                                if (input[1] <= -0.11879827827215195) {
                                                    var5 = 16.0;
                                                } else {
                                                    var5 = 17.0;
                                                }
                                            }
                                        } else {
                                            var5 = 14.0;
                                        }
                                    } else {
                                        if (input[3] <= 1.3723844587802887) {
                                            if (input[0] <= -0.4028251841664314) {
                                                if (input[1] <= 0.21398960798978806) {
                                                    var5 = 13.0;
                                                } else {
                                                    var5 = 12.0;
                                                }
                                            } else {
                                                var5 = 10.0;
                                            }
                                        } else {
                                            var5 = 0.0;
                                        }
                                    }
                                } else {
                                    if (input[3] <= 1.3723844587802887) {
                                        var5 = 5.0;
                                    } else {
                                        var5 = 0.0;
                                    }
                                }
                            } else {
                                if (input[8] <= 1.6218220591545105) {
                                    if (input[8] <= 1.4556657671928406) {
                                        var5 = 0.0;
                                    } else {
                                        if (input[1] <= 0.42000116407871246) {
                                            if (input[1] <= -0.12408062443137169) {
                                                if (input[0] <= -1.8710065484046936) {
                                                    var5 = 18.0;
                                                } else {
                                                    var5 = 19.0;
                                                }
                                            } else {
                                                if (input[0] <= -1.1284780502319336) {
                                                    if (input[0] <= -1.7360013127326965) {
                                                        var5 = 13.0;
                                                    } else {
                                                        var5 = 12.0;
                                                    }
                                                } else {
                                                    var5 = 14.0;
                                                }
                                            }
                                        } else {
                                            if (input[0] <= 0.17094682529568672) {
                                                if (input[0] <= -0.28469567000865936) {
                                                    var5 = 0.0;
                                                } else {
                                                    if (input[0] <= -0.1665661334991455) {
                                                        var5 = 10.0;
                                                    } else {
                                                        var5 = 0.0;
                                                    }
                                                }
                                            } else {
                                                var5 = 10.0;
                                            }
                                        }
                                    }
                                } else {
                                    if (input[1] <= -0.0025866366922855377) {
                                        if (input[1] <= -0.33537452667951584) {
                                            var5 = 19.0;
                                        } else {
                                            if (input[0] <= 1.149734377861023) {
                                                if (input[1] <= -0.21916288137435913) {
                                                    var5 = 17.0;
                                                } else {
                                                    if (input[3] <= 1.9179879426956177) {
                                                        var5 = 16.0;
                                                    } else {
                                                        var5 = 17.0;
                                                    }
                                                }
                                            } else {
                                                var5 = 20.0;
                                            }
                                        }
                                    } else {
                                        if (input[1] <= 0.3988717645406723) {
                                            if (input[1] <= 0.0924956165254116) {
                                                var5 = 14.0;
                                            } else {
                                                var5 = 13.0;
                                            }
                                        } else {
                                            if (input[0] <= 0.9472265988588333) {
                                                if (input[1] <= 0.5520598292350769) {
                                                    var5 = 11.0;
                                                } else {
                                                    var5 = 10.0;
                                                }
                                            } else {
                                                var5 = 14.0;
                                            }
                                        }
                                    }
                                }
                            }
                        }
                        double var6;
                        if (input[1] <= -0.641750693321228) {
                            if (input[1] <= -1.2439382672309875) {
                                if (input[8] <= 1.6218220591545105) {
                                    var6 = 30.0;
                                } else {
                                    if (input[0] <= 0.8459727168083191) {
                                        var6 = 28.0;
                                    } else {
                                        var6 = 30.0;
                                    }
                                }
                            } else {
                                if (input[1] <= -1.0537737607955933) {
                                    if (input[7] <= -0.9616383165121078) {
                                        var6 = 29.0;
                                    } else {
                                        if (input[1] <= -1.1277266144752502) {
                                            var6 = 26.0;
                                        } else {
                                            var6 = 25.0;
                                        }
                                    }
                                } else {
                                    if (input[1] <= -0.9005857110023499) {
                                        var6 = 24.0;
                                    } else {
                                        if (input[3] <= 1.6423652172088623) {
                                            if (input[3] <= 0.3035145699977875) {
                                                var6 = 22.0;
                                            } else {
                                                var6 = 23.0;
                                            }
                                        } else {
                                            var6 = 21.0;
                                        }
                                    }
                                }
                            }
                        } else {
                            if (input[7] <= 0.1235494613647461) {
                                if (input[1] <= 1.2915884852409363) {
                                    if (input[1] <= 0.10834265872836113) {
                                        if (input[7] <= -1.3077110052108765) {
                                            var6 = 14.0;
                                        } else {
                                            if (input[0] <= 0.0696929395198822) {
                                                var6 = 16.0;
                                            } else {
                                                if (input[8] <= 0.467623233795166) {
                                                    var6 = 17.0;
                                                } else {
                                                    var6 = 20.0;
                                                }
                                            }
                                        }
                                    } else {
                                        if (input[1] <= 0.5256480947136879) {
                                            if (input[1] <= 0.21398960798978806) {
                                                var6 = 13.0;
                                            } else {
                                                var6 = 12.0;
                                            }
                                        } else {
                                            var6 = 10.0;
                                        }
                                    }
                                } else {
                                    if (input[7] <= -1.9263830184936523) {
                                        var6 = 5.0;
                                    } else {
                                        var6 = 0.0;
                                    }
                                }
                            } else {
                                if (input[8] <= 1.6218220591545105) {
                                    if (input[8] <= 1.4556657671928406) {
                                        var6 = 0.0;
                                    } else {
                                        if (input[0] <= 0.18782247137278318) {
                                            if (input[1] <= 0.45697757601737976) {
                                                if (input[4] <= -1.3335883617401123) {
                                                    var6 = 12.0;
                                                } else {
                                                    var6 = 11.0;
                                                }
                                            } else {
                                                if (input[0] <= -0.28469567000865936) {
                                                    if (input[1] <= 1.7300233244895935) {
                                                        var6 = 0.0;
                                                    } else {
                                                        if (input[1] <= 1.80925852060318) {
                                                            var6 = 10.0;
                                                        } else {
                                                            var6 = 0.0;
                                                        }
                                                    }
                                                } else {
                                                    if (input[0] <= -0.1665661334991455) {
                                                        var6 = 10.0;
                                                    } else {
                                                        var6 = 0.0;
                                                    }
                                                }
                                            }
                                        } else {
                                            if (input[1] <= 0.2985071688890457) {
                                                var6 = 13.0;
                                            } else {
                                                var6 = 12.0;
                                            }
                                        }
                                    }
                                } else {
                                    if (input[1] <= 0.023825100623071194) {
                                        if (input[0] <= -1.381612777709961) {
                                            if (input[0] <= -2.006011724472046) {
                                                var6 = 20.0;
                                            } else {
                                                var6 = 19.0;
                                            }
                                        } else {
                                            if (input[0] <= 1.149734377861023) {
                                                if (input[1] <= -0.028998373076319695) {
                                                    if (input[4] <= -1.3335883617401123) {
                                                        var6 = 16.0;
                                                    } else {
                                                        if (input[4] <= -0.9477044641971588) {
                                                            var6 = 17.0;
                                                        } else {
                                                            if (input[0] <= -0.28469565510749817) {
                                                                var6 = 17.0;
                                                            } else {
                                                                var6 = 16.0;
                                                            }
                                                        }
                                                    }
                                                } else {
                                                    var6 = 15.0;
                                                }
                                            } else {
                                                if (input[3] <= 1.102403700351715) {
                                                    var6 = 18.0;
                                                } else {
                                                    if (input[4] <= -1.3335883617401123) {
                                                        var6 = 19.0;
                                                    } else {
                                                        var6 = 20.0;
                                                    }
                                                }
                                            }
                                        }
                                    } else {
                                        if (input[1] <= 0.24040134996175766) {
                                            if (input[1] <= 0.08721326850354671) {
                                                var6 = 14.0;
                                            } else {
                                                var6 = 13.0;
                                            }
                                        } else {
                                            if (input[0] <= 0.2890763580799103) {
                                                if (input[1] <= 0.6999655663967133) {
                                                    var6 = 11.0;
                                                } else {
                                                    var6 = 10.0;
                                                }
                                            } else {
                                                if (input[1] <= 0.7633537352085114) {
                                                    var6 = 12.0;
                                                } else {
                                                    var6 = 13.0;
                                                }
                                            }
                                        }
                                    }
                                }
                            }
                        }
                        double var7;
                        if (input[1] <= -0.6364683210849762) {
                            if (input[1] <= -1.2597853541374207) {
                                if (input[0] <= -2.0397629737854004) {
                                    var7 = 28.0;
                                } else {
                                    if (input[8] <= 0.680728867650032) {
                                        var7 = 30.0;
                                    } else {
                                        if (input[1] <= -1.4763615727424622) {
                                            var7 = 30.0;
                                        } else {
                                            var7 = 28.0;
                                        }
                                    }
                                }
                            } else {
                                if (input[1] <= -0.9269974231719971) {
                                    if (input[1] <= -1.1277266144752502) {
                                        var7 = 26.0;
                                    } else {
                                        if (input[0] <= -0.250944372266531) {
                                            var7 = 25.0;
                                        } else {
                                            var7 = 24.0;
                                        }
                                    }
                                } else {
                                    if (input[8] <= 1.6218220591545105) {
                                        var7 = 21.0;
                                    } else {
                                        if (input[3] <= 0.3035145699977875) {
                                            var7 = 22.0;
                                        } else {
                                            var7 = 23.0;
                                        }
                                    }
                                }
                            }
                        } else {
                            if (input[7] <= 0.1235494613647461) {
                                if (input[1] <= 1.2229179739952087) {
                                    if (input[1] <= 0.11362500861287117) {
                                        if (input[1] <= 0.05551918549463153) {
                                            if (input[7] <= -0.37583915889263153) {
                                                if (input[1] <= -0.1135159321129322) {
                                                    var7 = 16.0;
                                                } else {
                                                    var7 = 17.0;
                                                }
                                            } else {
                                                var7 = 20.0;
                                            }
                                        } else {
                                            var7 = 14.0;
                                        }
                                    } else {
                                        if (input[7] <= -1.8935101628303528) {
                                            if (input[0] <= -0.6728355586528778) {
                                                var7 = 13.0;
                                            } else {
                                                var7 = 12.0;
                                            }
                                        } else {
                                            var7 = 10.0;
                                        }
                                    }
                                } else {
                                    if (input[0] <= -1.6516231298446655) {
                                        var7 = 0.0;
                                    } else {
                                        if (input[0] <= -1.2297319173812866) {
                                            if (input[8] <= 0.12475898861885071) {
                                                var7 = 10.0;
                                            } else {
                                                var7 = 5.0;
                                            }
                                        } else {
                                            var7 = 0.0;
                                        }
                                    }
                                }
                            } else {
                                if (input[8] <= 1.6218220591545105) {
                                    if (input[8] <= 1.4556657671928406) {
                                        var7 = 0.0;
                                    } else {
                                        if (input[1] <= 0.4992363750934601) {
                                            if (input[3] <= 1.102403700351715) {
                                                var7 = 19.0;
                                            } else {
                                                if (input[0] <= 0.2890763580799103) {
                                                    var7 = 14.0;
                                                } else {
                                                    if (input[4] <= -1.3335883617401123) {
                                                        var7 = 12.0;
                                                    } else {
                                                        var7 = 13.0;
                                                    }
                                                }
                                            }
                                        } else {
                                            if (input[0] <= 0.37345460429787636) {
                                                if (input[0] <= -0.28469567000865936) {
                                                    var7 = 0.0;
                                                } else {
                                                    if (input[0] <= -0.1665661334991455) {
                                                        var7 = 10.0;
                                                    } else {
                                                        var7 = 0.0;
                                                    }
                                                }
                                            } else {
                                                if (input[1] <= 1.201788604259491) {
                                                    var7 = 11.0;
                                                } else {
                                                    var7 = 12.0;
                                                }
                                            }
                                        }
                                    }
                                } else {
                                    if (input[1] <= 0.0026957113295793533) {
                                        if (input[1] <= -0.36178624629974365) {
                                            var7 = 19.0;
                                        } else {
                                            if (input[0] <= 1.149734377861023) {
                                                if (input[3] <= 1.9179879426956177) {
                                                    var7 = 16.0;
                                                } else {
                                                    var7 = 17.0;
                                                }
                                            } else {
                                                var7 = 19.0;
                                            }
                                        }
                                    } else {
                                        if (input[1] <= 0.37774237990379333) {
                                            if (input[1] <= 0.10834265872836113) {
                                                var7 = 14.0;
                                            } else {
                                                if (input[3] <= 1.9179879426956177) {
                                                    var7 = 13.0;
                                                } else {
                                                    var7 = 12.0;
                                                }
                                            }
                                        } else {
                                            if (input[0] <= 0.7278431756421924) {
                                                if (input[1] <= 0.5203657448291779) {
                                                    var7 = 11.0;
                                                } else {
                                                    var7 = 10.0;
                                                }
                                            } else {
                                                var7 = 14.0;
                                            }
                                        }
                                    }
                                }
                            }
                        }
                        double var8;
                        if (input[1] <= -0.641750693321228) {
                            if (input[1] <= -1.2439382672309875) {
                                if (input[0] <= -2.022887349128723) {
                                    var8 = 28.0;
                                } else {
                                    if (input[4] <= -0.9477044641971588) {
                                        if (input[1] <= -1.4816439151763916) {
                                            var8 = 30.0;
                                        } else {
                                            var8 = 28.0;
                                        }
                                    } else {
                                        var8 = 30.0;
                                    }
                                }
                            } else {
                                if (input[1] <= -1.0484914183616638) {
                                    if (input[3] <= 2.1712735891342163) {
                                        if (input[1] <= -1.1277266144752502) {
                                            var8 = 26.0;
                                        } else {
                                            var8 = 25.0;
                                        }
                                    } else {
                                        var8 = 29.0;
                                    }
                                } else {
                                    if (input[1] <= -0.8530445694923401) {
                                        var8 = 24.0;
                                    } else {
                                        if (input[0] <= -0.7740894705057144) {
                                            var8 = 22.0;
                                        } else {
                                            var8 = 23.0;
                                        }
                                    }
                                }
                            }
                        } else {
                            if (input[7] <= 0.1235494613647461) {
                                if (input[1] <= 1.2229179739952087) {
                                    if (input[1] <= 0.10834265872836113) {
                                        if (input[7] <= -0.37583915889263153) {
                                            if (input[1] <= 0.034389795269817114) {
                                                if (input[0] <= 0.0696929395198822) {
                                                    var8 = 16.0;
                                                } else {
                                                    var8 = 17.0;
                                                }
                                            } else {
                                                var8 = 14.0;
                                            }
                                        } else {
                                            var8 = 20.0;
                                        }
                                    } else {
                                        if (input[7] <= -1.8935101628303528) {
                                            if (input[0] <= -0.6728355586528778) {
                                                var8 = 13.0;
                                            } else {
                                                var8 = 12.0;
                                            }
                                        } else {
                                            if (input[3] <= 1.3723844587802887) {
                                                var8 = 10.0;
                                            } else {
                                                var8 = 0.0;
                                            }
                                        }
                                    }
                                } else {
                                    if (input[7] <= -2.0227614045143127) {
                                        var8 = 5.0;
                                    } else {
                                        var8 = 0.0;
                                    }
                                }
                            } else {
                                if (input[8] <= 1.6218220591545105) {
                                    if (input[8] <= 1.4556657671928406) {
                                        var8 = 0.0;
                                    } else {
                                        if (input[1] <= 0.45697757601737976) {
                                            if (input[1] <= -0.15577470930293202) {
                                                if (input[0] <= -1.8710065484046936) {
                                                    var8 = 18.0;
                                                } else {
                                                    var8 = 19.0;
                                                }
                                            } else {
                                                if (input[1] <= 0.2456836998462677) {
                                                    if (input[1] <= 0.10306030884385109) {
                                                        var8 = 14.0;
                                                    } else {
                                                        var8 = 13.0;
                                                    }
                                                } else {
                                                    if (input[1] <= 0.3249189108610153) {
                                                        var8 = 12.0;
                                                    } else {
                                                        var8 = 11.0;
                                                    }
                                                }
                                            }
                                        } else {
                                            if (input[0] <= 0.35657895635813475) {
                                                if (input[0] <= -0.28469567000865936) {
                                                    if (input[0] <= -1.5503692626953125) {
                                                        if (input[0] <= -1.702250063419342) {
                                                            var8 = 0.0;
                                                        } else {
                                                            var8 = 10.0;
                                                        }
                                                    } else {
                                                        var8 = 0.0;
                                                    }
                                                } else {
                                                    if (input[0] <= -0.14969048462808132) {
                                                        var8 = 10.0;
                                                    } else {
                                                        var8 = 0.0;
                                                    }
                                                }
                                            } else {
                                                if (input[0] <= 0.7109675705432892) {
                                                    var8 = 11.0;
                                                } else {
                                                    var8 = 12.0;
                                                }
                                            }
                                        }
                                    }
                                } else {
                                    if (input[1] <= 0.029107448644936085) {
                                        if (input[0] <= 1.0822317898273468) {
                                            if (input[1] <= -0.3142451196908951) {
                                                if (input[1] <= -0.39876268804073334) {
                                                    var8 = 19.0;
                                                } else {
                                                    var8 = 18.0;
                                                }
                                            } else {
                                                if (input[1] <= -0.21916288137435913) {
                                                    var8 = 17.0;
                                                } else {
                                                    if (input[1] <= -0.034280721098184586) {
                                                        var8 = 16.0;
                                                    } else {
                                                        var8 = 15.0;
                                                    }
                                                }
                                            }
                                        } else {
                                            if (input[3] <= 1.372384488582611) {
                                                var8 = 18.0;
                                            } else {
                                                var8 = 20.0;
                                            }
                                        }
                                    } else {
                                        if (input[1] <= 0.37774237990379333) {
                                            if (input[1] <= 0.09777796640992165) {
                                                var8 = 14.0;
                                            } else {
                                                if (input[0] <= 0.6265893280506134) {
                                                    var8 = 13.0;
                                                } else {
                                                    var8 = 12.0;
                                                }
                                            }
                                        } else {
                                            if (input[0] <= 0.8628484159708023) {
                                                if (input[1] <= 0.7527890503406525) {
                                                    var8 = 11.0;
                                                } else {
                                                    var8 = 10.0;
                                                }
                                            } else {
                                                if (input[0] <= 1.3522421717643738) {
                                                    var8 = 13.0;
                                                } else {
                                                    var8 = 14.0;
                                                }
                                            }
                                        }
                                    }
                                }
                            }
                        }
                        double var9;
                        if (input[1] <= -0.641750693321228) {
                            if (input[1] <= -1.2439382672309875) {
                                if (input[8] <= 0.680728867650032) {
                                    if (input[0] <= -0.9597215801477432) {
                                        if (input[1] <= -1.7404789328575134) {
                                            var9 = 30.0;
                                        } else {
                                            var9 = 29.0;
                                        }
                                    } else {
                                        var9 = 30.0;
                                    }
                                } else {
                                    if (input[1] <= -1.4816439151763916) {
                                        var9 = 30.0;
                                    } else {
                                        var9 = 28.0;
                                    }
                                }
                            } else {
                                if (input[1] <= -1.0484914183616638) {
                                    if (input[8] <= 0.7448628097772598) {
                                        var9 = 29.0;
                                    } else {
                                        if (input[1] <= -1.1277266144752502) {
                                            var9 = 26.0;
                                        } else {
                                            var9 = 25.0;
                                        }
                                    }
                                } else {
                                    if (input[1] <= -0.8424798846244812) {
                                        var9 = 24.0;
                                    } else {
                                        if (input[3] <= 1.6423652172088623) {
                                            if (input[1] <= -0.6998564898967743) {
                                                var9 = 22.0;
                                            } else {
                                                var9 = 23.0;
                                            }
                                        } else {
                                            var9 = 21.0;
                                        }
                                    }
                                }
                            }
                        } else {
                            if (input[7] <= 0.1235494613647461) {
                                if (input[1] <= 0.47810696065425873) {
                                    if (input[1] <= 0.029107447946444154) {
                                        if (input[7] <= -0.37583915889263153) {
                                            if (input[0] <= 0.0696929395198822) {
                                                var9 = 16.0;
                                            } else {
                                                var9 = 17.0;
                                            }
                                        } else {
                                            var9 = 20.0;
                                        }
                                    } else {
                                        if (input[0] <= -0.8078407347202301) {
                                            var9 = 14.0;
                                        } else {
                                            if (input[1] <= 0.21398960798978806) {
