double score(double * input) {
    double var0;
    if (input[0] <= 0.6622532606124878) {
        if (input[0] <= 0.007858160912292078) {
            if (input[1] <= -0.6034365445375443) {
                if (input[6] <= 0.19184142351150513) {
                    var0 = 4.0;
                } else {
                    var0 = 0.0;
                }
            } else {
                if (input[0] <= -0.3847789168357849) {
                    var0 = 0.0;
                } else {
                    if (input[1] <= 0.6720007359981537) {
                        var0 = 1.0;
                    } else {
                        var0 = 0.0;
                    }
                }
            }
        } else {
            if (input[1] <= 0.6944330632686615) {
                var0 = 4.0;
            } else {
                var0 = 3.0;
            }
        }
    } else {
        var0 = 20.0;
    }
    double var1;
    if (input[0] <= 0.6622532606124878) {
        if (input[0] <= 0.007858160912292078) {
            if (input[1] <= -0.6034365445375443) {
                if (input[6] <= 0.19184142351150513) {
                    var1 = 4.0;
                } else {
                    var1 = 0.0;
                }
            } else {
                if (input[0] <= -0.3847789168357849) {
                    var1 = 0.0;
                } else {
                    if (input[1] <= 0.6720007359981537) {
                        var1 = 1.0;
                    } else {
                        var1 = 0.0;
                    }
                }
            }
        } else {
            if (input[1] <= 0.7809576988220215) {
                var1 = 4.0;
            } else {
                var1 = 3.0;
            }
        }
    } else {
        var1 = 20.0;
    }
    double var2;
    if (input[1] <= -1.087333619594574) {
        var2 = 20.0;
    } else {
        if (input[0] <= 0.007858160912292078) {
            if (input[1] <= -0.7123934924602509) {
                if (input[0] <= -0.8065001890063286) {
                    var2 = 0.0;
                } else {
                    var2 = 4.0;
                }
            } else {
                if (input[0] <= -0.3847789168357849) {
                    var2 = 0.0;
                } else {
                    if (input[1] <= 0.6848191916942596) {
                        var2 = 1.0;
                    } else {
                        var2 = 0.0;
                    }
                }
            }
        } else {
            if (input[1] <= 0.6944330632686615) {
                var2 = 4.0;
            } else {
                var2 = 3.0;
            }
        }
    }
    double var3;
    if (input[0] <= 0.6695243418216705) {
        if (input[0] <= 0.007858160912292078) {
            if (input[1] <= -0.6034365445375443) {
                if (input[0] <= -0.8065001890063286) {
                    var3 = 0.0;
                } else {
                    var3 = 4.0;
                }
            } else {
                if (input[0] <= -0.3993210345506668) {
                    var3 = 0.0;
                } else {
                    if (input[1] <= 0.6848191916942596) {
                        var3 = 1.0;
                    } else {
                        var3 = 0.0;
                    }
                }
            }
        } else {
            if (input[1] <= 0.6399545669555664) {
                var3 = 4.0;
            } else {
                var3 = 3.0;
            }
        }
    } else {
        var3 = 20.0;
    }
    double var4;
    if (input[0] <= 0.6695243418216705) {
        if (input[0] <= 0.007858160912292078) {
            if (input[1] <= -0.6034365445375443) {
                if (input[6] <= 0.19184142351150513) {
                    var4 = 4.0;
                } else {
                    var4 = 0.0;
                }
            } else {
                if (input[0] <= -0.3847789168357849) {
                    var4 = 0.0;
                } else {
                    if (input[1] <= 0.6848191916942596) {
                        var4 = 1.0;
                    } else {
                        var4 = 0.0;
                    }
                }
            }
        } else {
            if (input[1] <= 0.7809576988220215) {
                var4 = 4.0;
            } else {
                var4 = 3.0;
            }
        }
    } else {
        var4 = 20.0;
    }
    double var5;
    if (input[1] <= -1.084128975868225) {
        var5 = 20.0;
    } else {
        if (input[0] <= -0.13756297528743744) {
            if (input[0] <= -0.40659208595752716) {
                var5 = 0.0;
            } else {
                if (input[1] <= 0.7008422911167145) {
                    var5 = 1.0;
                } else {
                    var5 = 0.0;
                }
            }
        } else {
            if (input[1] <= 0.9283700287342072) {
                if (input[1] <= 0.6399545669555664) {
                    if (input[0] <= 0.007858160912292078) {
                        if (input[7] <= 0.5668401569128036) {
                            var5 = 1.0;
                        } else {
                            var5 = 4.0;
                        }
                    } else {
                        var5 = 4.0;
                    }
                } else {
                    var5 = 3.0;
                }
            } else {
                var5 = 0.0;
            }
        }
    }
    double var6;
    if (input[0] <= 0.6622532606124878) {
        if (input[0] <= 0.007858160912292078) {
            if (input[1] <= -0.6034365445375443) {
                if (input[6] <= 0.19184142351150513) {
                    var6 = 4.0;
                } else {
                    var6 = 0.0;
                }
            } else {
                if (input[0] <= -0.3847789168357849) {
                    var6 = 0.0;
                } else {
                    if (input[1] <= 0.6816145777702332) {
                        var6 = 1.0;
                    } else {
                        var6 = 0.0;
                    }
                }
            }
        } else {
            if (input[1] <= 0.7809576988220215) {
                var6 = 4.0;
            } else {
                var6 = 3.0;
            }
        }
    } else {
        var6 = 20.0;
    }
    double var7;
    if (input[0] <= 0.6695243418216705) {
        if (input[0] <= 0.007858160912292078) {
            if (input[1] <= -0.6034365445375443) {
                if (input[6] <= 0.19184142351150513) {
                    var7 = 4.0;
                } else {
                    var7 = 0.0;
                }
            } else {
                if (input[0] <= -0.370236799120903) {
                    var7 = 0.0;
                } else {
                    if (input[1] <= 0.6720007359981537) {
                        var7 = 1.0;
                    } else {
                        var7 = 0.0;
                    }
                }
            }
        } else {
            var7 = 4.0;
        }
    } else {
        var7 = 20.0;
    }
    double var8;
    if (input[0] <= 0.6695243418216705) {
        if (input[0] <= 0.007858160912292078) {
            if (input[1] <= -0.6002319306135178) {
                if (input[0] <= -0.8065001890063286) {
                    var8 = 0.0;
                } else {
                    var8 = 4.0;
                }
            } else {
                if (input[0] <= -0.3993210345506668) {
                    var8 = 0.0;
                } else {
                    if (input[1] <= 0.6720007359981537) {
                        var8 = 1.0;
                    } else {
                        var8 = 0.0;
                    }
                }
            }
        } else {
            if (input[1] <= 0.7072515040636063) {
                var8 = 4.0;
            } else {
                var8 = 3.0;
            }
        }
    } else {
        var8 = 20.0;
    }
    double var9;
    if (input[0] <= 0.6695243418216705) {
        if (input[0] <= 0.007858160912292078) {
            if (input[1] <= -0.6034365445375443) {
                if (input[0] <= -0.8065001890063286) {
                    var9 = 0.0;
                } else {
                    var9 = 4.0;
                }
            } else {
                if (input[0] <= -0.3847789168357849) {
                    var9 = 0.0;
                } else {
                    if (input[1] <= 0.6720007359981537) {
                        var9 = 1.0;
                    } else {
                        var9 = 0.0;
                    }
                }
            }
        } else {
            if (input[1] <= 0.7328884303569794) {
                var9 = 4.0;
            } else {
                var9 = 3.0;
            }
        }
    } else {
        var9 = 20.0;
    }
    double var10;
    if (input[0] <= 0.6622532606124878) {
        if (input[0] <= -0.13756298273801804) {
            if (input[0] <= -0.3847789168357849) {
                var10 = 0.0;
            } else {
                if (input[7] <= -1.128477156162262) {
                    var10 = 1.0;
                } else {
                    var10 = 0.0;
                }
            }
        } else {
            if (input[1] <= 0.9315746426582336) {
                if (input[1] <= 0.6431591808795929) {
                    if (input[0] <= 0.007858160912292078) {
                        if (input[4] <= 0.6360059455037117) {
                            var10 = 4.0;
                        } else {
                            var10 = 1.0;
                        }
                    } else {
                        var10 = 4.0;
                    }
                } else {
                    var10 = 3.0;
                }
            } else {
                var10 = 0.0;
            }
        }
    } else {
        var10 = 20.0;
    }
    double var11;
    if (input[0] <= 0.6695243418216705) {
        if (input[0] <= 0.007858160912292078) {
            if (input[1] <= -0.6034365445375443) {
                if (input[6] <= 0.19184142351150513) {
                    var11 = 4.0;
                } else {
                    var11 = 0.0;
                }
            } else {
                if (input[0] <= -0.3847789168357849) {
                    var11 = 0.0;
                } else {
                    if (input[1] <= 0.6720007359981537) {
                        var11 = 1.0;
                    } else {
                        var11 = 0.0;
                    }
                }
            }
        } else {
            if (input[1] <= 0.6944330632686615) {
                var11 = 4.0;
            } else {
                var11 = 3.0;
            }
        }
    } else {
        var11 = 20.0;
    }
    double var12;
    if (input[0] <= 0.6695243418216705) {
        if (input[0] <= 0.007858160912292078) {
            if (input[1] <= -0.6002319306135178) {
                if (input[0] <= -0.8065001890063286) {
                    var12 = 0.0;
                } else {
                    var12 = 4.0;
                }
            } else {
                if (input[0] <= -0.40659208595752716) {
                    var12 = 0.0;
                } else {
                    if (input[1] <= 0.6816145777702332) {
                        var12 = 1.0;
                    } else {
                        var12 = 0.0;
                    }
                }
            }
        } else {
            if (input[1] <= 0.6944330632686615) {
                var12 = 4.0;
            } else {
                var12 = 3.0;
            }
        }
    } else {
        var12 = 20.0;
    }
    double var13;
    if (input[0] <= 0.6695243418216705) {
        if (input[0] <= 0.007858160912292078) {
            if (input[1] <= -0.6034365445375443) {
                if (input[0] <= -0.8065001890063286) {
                    var13 = 0.0;
                } else {
                    var13 = 4.0;
                }
            } else {
                if (input[0] <= -0.3847789168357849) {
                    var13 = 0.0;
                } else {
                    if (input[1] <= 0.6720007359981537) {
                        var13 = 1.0;
                    } else {
                        var13 = 0.0;
                    }
                }
            }
        } else {
            if (input[1] <= 0.6944330632686615) {
                var13 = 4.0;
            } else {
                var13 = 3.0;
            }
        }
    } else {
        var13 = 20.0;
    }
    double var14;
    if (input[1] <= -1.087333619594574) {
        var14 = 20.0;
    } else {
        if (input[0] <= 0.007858160912292078) {
            if (input[1] <= -0.6002319306135178) {
                if (input[6] <= 0.19184142351150513) {
                    var14 = 4.0;
                } else {
                    var14 = 0.0;
                }
            } else {
                if (input[0] <= -0.40659208595752716) {
                    var14 = 0.0;
                } else {
                    if (input[1] <= 0.6720007359981537) {
                        var14 = 1.0;
                    } else {
                        var14 = 0.0;
                    }
                }
            }
        } else {
            if (input[1] <= 0.6175222545862198) {
                var14 = 4.0;
            } else {
                var14 = 3.0;
            }
        }
    }
    double var15;
    if (input[1] <= -1.087333619594574) {
        var15 = 20.0;
    } else {
        if (input[0] <= 0.007858160912292078) {
            if (input[1] <= -0.6002319306135178) {
                if (input[6] <= 0.19184142351150513) {
                    var15 = 4.0;
                } else {
                    var15 = 0.0;
                }
            } else {
                if (input[0] <= -0.3993210345506668) {
                    var15 = 0.0;
                } else {
                    if (input[1] <= 0.6720007359981537) {
                        var15 = 1.0;
                    } else {
                        var15 = 0.0;
                    }
                }
            }
        } else {
            if (input[1] <= 0.7809576988220215) {
                var15 = 4.0;
            } else {
                var15 = 3.0;
            }
        }
    }
    double var16;
    if (input[1] <= -1.087333619594574) {
        var16 = 20.0;
    } else {
        if (input[0] <= 0.007858160912292078) {
            if (input[1] <= -0.6034365445375443) {
                if (input[6] <= 0.19184142351150513) {
                    var16 = 4.0;
                } else {
                    var16 = 0.0;
                }
            } else {
                if (input[0] <= -0.3847789168357849) {
                    var16 = 0.0;
                } else {
                    if (input[1] <= 0.6848191916942596) {
                        var16 = 1.0;
                    } else {
                        var16 = 0.0;
                    }
                }
            }
        } else {
            if (input[1] <= 0.7296838164329529) {
                var16 = 4.0;
            } else {
                var16 = 3.0;
            }
        }
    }
    double var17;
    if (input[0] <= 0.6695243418216705) {
        if (input[0] <= 0.007858160912292078) {
            if (input[1] <= -0.7284165620803833) {
                if (input[0] <= -0.8137713000178337) {
                    var17 = 0.0;
                } else {
                    var17 = 4.0;
                }
            } else {
                if (input[0] <= -0.3847789168357849) {
                    var17 = 0.0;
                } else {
                    if (input[1] <= 0.6720007359981537) {
                        if (input[1] <= -0.20285950601100922) {
                            var17 = 4.0;
                        } else {
                            var17 = 1.0;
                        }
                    } else {
                        var17 = 0.0;
                    }
                }
            }
        } else {
            if (input[0] <= 0.022400274872779846) {
                var17 = 3.0;
            } else {
                var17 = 4.0;
            }
        }
    } else {
        var17 = 20.0;
    }
    double var18;
    if (input[1] <= -1.087333619594574) {
        var18 = 20.0;
    } else {
        if (input[0] <= 0.007858160912292078) {
            if (input[1] <= -0.6002319306135178) {
                if (input[6] <= 0.19184142351150513) {
                    var18 = 4.0;
                } else {
                    var18 = 0.0;
                }
            } else {
                if (input[0] <= -0.3847789168357849) {
                    var18 = 0.0;
                } else {
                    if (input[1] <= 0.6720007359981537) {
                        var18 = 1.0;
                    } else {
                        var18 = 0.0;
                    }
                }
            }
        } else {
            if (input[1] <= 0.6944330632686615) {
                var18 = 4.0;
            } else {
                var18 = 3.0;
            }
        }
    }
    double var19;
    if (input[1] <= -1.090538203716278) {
        var19 = 20.0;
    } else {
        if (input[0] <= 0.007858160912292078) {
            if (input[0] <= -0.13756298273801804) {
                if (input[0] <= -0.3993210345506668) {
                    var19 = 0.0;
                } else {
                    if (input[1] <= 0.7360930740833282) {
                        var19 = 1.0;
                    } else {
                        var19 = 0.0;
                    }
                }
            } else {
                if (input[1] <= -0.20285950601100922) {
                    var19 = 4.0;
                } else {
                    if (input[3] <= -0.26627208292484283) {
                        var19 = 1.0;
                    } else {
                        var19 = 0.0;
                    }
                }
            }
        } else {
            if (input[1] <= 0.6944330632686615) {
                var19 = 4.0;
            } else {
                var19 = 3.0;
            }
        }
    }
    double var20;
    if (input[1] <= -1.087333619594574) {
        var20 = 20.0;
    } else {
        if (input[0] <= 0.007858160912292078) {
            if (input[1] <= -0.6002319306135178) {
                if (input[6] <= 0.19184142351150513) {
                    var20 = 4.0;
                } else {
                    var20 = 0.0;
                }
            } else {
                if (input[0] <= -0.3847789168357849) {
                    var20 = 0.0;
                } else {
                    if (input[1] <= 0.6720007359981537) {
                        var20 = 1.0;
                    } else {
                        var20 = 0.0;
                    }
                }
            }
        } else {
            if (input[1] <= 0.6399545669555664) {
                var20 = 4.0;
            } else {
                var20 = 3.0;
            }
        }
    }
    double var21;
    if (input[0] <= 0.6622532606124878) {
        if (input[0] <= 0.007858160912292078) {
            if (input[1] <= -0.6002319306135178) {
                if (input[0] <= -0.8065001890063286) {
                    var21 = 0.0;
                } else {
                    var21 = 4.0;
                }
            } else {
                if (input[0] <= -0.3993210345506668) {
                    var21 = 0.0;
                } else {
                    if (input[1] <= 0.7008422911167145) {
                        var21 = 1.0;
                    } else {
                        var21 = 0.0;
                    }
                }
            }
        } else {
            if (input[1] <= 0.7809576988220215) {
                var21 = 4.0;
            } else {
                var21 = 3.0;
            }
        }
    } else {
        var21 = 20.0;
    }
    double var22;
    if (input[1] <= -1.087333619594574) {
        var22 = 20.0;
    } else {
        if (input[0] <= 0.007858160912292078) {
            if (input[1] <= -0.6002319306135178) {
                if (input[6] <= 0.19184142351150513) {
                    var22 = 4.0;
                } else {
                    var22 = 0.0;
                }
            } else {
                if (input[0] <= -0.3847789168357849) {
                    var22 = 0.0;
                } else {
                    if (input[1] <= 0.6687961220741272) {
                        var22 = 1.0;
                    } else {
                        var22 = 0.0;
                    }
                }
            }
        } else {
            if (input[1] <= 0.6944330632686615) {
                var22 = 4.0;
            } else {
                var22 = 3.0;
            }
        }
    }
    double var23;
    if (input[1] <= -1.087333619594574) {
        var23 = 20.0;
    } else {
        if (input[0] <= 0.007858160912292078) {
            if (input[1] <= -0.6002319306135178) {
                if (input[6] <= 0.19184142351150513) {
                    var23 = 4.0;
                } else {
                    var23 = 0.0;
                }
            } else {
                if (input[0] <= -0.3847789168357849) {
                    var23 = 0.0;
                } else {
                    if (input[1] <= 0.6720007359981537) {
                        var23 = 1.0;
                    } else {
                        var23 = 0.0;
                    }
                }
            }
        } else {
            if (input[1] <= 0.6431591808795929) {
                var23 = 4.0;
            } else {
                var23 = 3.0;
            }
        }
    }
    double var24;
    if (input[0] <= 0.6695243418216705) {
        if (input[0] <= 0.007858160912292078) {
            if (input[1] <= -0.6002319306135178) {
                if (input[6] <= 0.19184142351150513) {
                    var24 = 4.0;
                } else {
                    var24 = 0.0;
                }
            } else {
                if (input[0] <= -0.3847789168357849) {
                    var24 = 0.0;
                } else {
                    if (input[1] <= 0.6720007359981537) {
                        var24 = 1.0;
                    } else {
                        var24 = 0.0;
                    }
                }
            }
        } else {
            if (input[1] <= 0.7809576988220215) {
                var24 = 4.0;
            } else {
                var24 = 3.0;
            }
        }
    } else {
        var24 = 20.0;
    }
    double var25;
    if (input[0] <= 0.6695243418216705) {
        if (input[0] <= 0.007858160912292078) {
            if (input[1] <= -0.6034365445375443) {
                if (input[0] <= -0.8065001890063286) {
                    var25 = 0.0;
                } else {
                    var25 = 4.0;
                }
            } else {
                if (input[0] <= -0.3847789168357849) {
                    var25 = 0.0;
                } else {
                    if (input[1] <= 0.6720007359981537) {
                        var25 = 1.0;
                    } else {
                        var25 = 0.0;
                    }
                }
            }
        } else {
            if (input[1] <= 0.6944330632686615) {
                var25 = 4.0;
            } else {
                var25 = 3.0;
            }
        }
    } else {
        var25 = 20.0;
    }
    double var26;
    if (input[1] <= -1.087333619594574) {
        var26 = 20.0;
    } else {
        if (input[0] <= 0.007858160912292078) {
            if (input[1] <= -0.6034365445375443) {
                if (input[0] <= -0.8065001890063286) {
                    var26 = 0.0;
                } else {
                    var26 = 4.0;
                }
            } else {
                if (input[0] <= -0.3993210345506668) {
                    var26 = 0.0;
                } else {
                    if (input[1] <= 0.6720007359981537) {
                        var26 = 1.0;
                    } else {
                        var26 = 0.0;
                    }
                }
            }
        } else {
            if (input[1] <= 0.6944330632686615) {
                var26 = 4.0;
            } else {
                var26 = 3.0;
            }
        }
    }
    double var27;
    if (input[1] <= -1.087333619594574) {
        var27 = 20.0;
    } else {
        if (input[0] <= 0.007858160912292078) {
            if (input[1] <= -0.6034365445375443) {
                if (input[0] <= -0.8065001890063286) {
                    var27 = 0.0;
                } else {
                    var27 = 4.0;
                }
            } else {
                if (input[0] <= -0.3847789168357849) {
                    var27 = 0.0;
                } else {
                    if (input[1] <= 0.7008422911167145) {
                        var27 = 1.0;
                    } else {
                        var27 = 0.0;
                    }
                }
            }
        } else {
            if (input[1] <= 0.784162312746048) {
                var27 = 4.0;
            } else {
                var27 = 3.0;
            }
        }
    }
    double var28;
    if (input[1] <= -1.087333619594574) {
        var28 = 20.0;
    } else {
        if (input[0] <= 0.007858160912292078) {
            if (input[1] <= -0.6002319306135178) {
                if (input[6] <= 0.19184142351150513) {
                    var28 = 4.0;
                } else {
                    var28 = 0.0;
                }
            } else {
                if (input[0] <= -0.3847789168357849) {
                    var28 = 0.0;
                } else {
                    if (input[1] <= 0.7328884601593018) {
                        var28 = 1.0;
                    } else {
                        var28 = 0.0;
                    }
                }
            }
        } else {
            if (input[0] <= 0.022400274872779846) {
                var28 = 3.0;
            } else {
                var28 = 4.0;
            }
        }
    }
    double var29;
    if (input[1] <= -1.087333619594574) {
        var29 = 20.0;
    } else {
        if (input[0] <= 0.007858160912292078) {
            if (input[1] <= -0.6066411584615707) {
                if (input[6] <= 0.19184142351150513) {
                    var29 = 4.0;
                } else {
                    var29 = 0.0;
                }
            } else {
                if (input[0] <= -0.3847789168357849) {
                    var29 = 0.0;
                } else {
                    if (input[1] <= 0.6720007359981537) {
                        var29 = 1.0;
                    } else {
                        var29 = 0.0;
                    }
                }
            }
        } else {
            if (input[1] <= 0.6944330632686615) {
                var29 = 4.0;
            } else {
                var29 = 3.0;
            }
        }
    }
    double var30;
    if (input[1] <= -1.087333619594574) {
        var30 = 20.0;
    } else {
        if (input[0] <= 0.007858160912292078) {
            if (input[0] <= -0.1448340341448784) {
                if (input[0] <= -0.3847789168357849) {
                    var30 = 0.0;
                } else {
                    if (input[1] <= 0.7008422911167145) {
                        var30 = 1.0;
                    } else {
                        var30 = 0.0;
                    }
                }
            } else {
                if (input[1] <= -0.20285950601100922) {
                    var30 = 4.0;
                } else {
                    if (input[3] <= -0.26627208292484283) {
                        var30 = 1.0;
                    } else {
                        var30 = 0.0;
                    }
                }
            }
        } else {
            if (input[1] <= 0.6431591808795929) {
                var30 = 4.0;
            } else {
                var30 = 3.0;
            }
        }
    }
    double var31;
    if (input[0] <= 0.6695243418216705) {
        if (input[0] <= 0.007858160912292078) {
            if (input[1] <= -0.6034365445375443) {
                if (input[6] <= 0.19184142351150513) {
                    var31 = 4.0;
                } else {
                    var31 = 0.0;
                }
            } else {
                if (input[0] <= -0.40659208595752716) {
                    var31 = 0.0;
                } else {
                    if (input[1] <= 0.6848191916942596) {
                        var31 = 1.0;
                    } else {
                        var31 = 0.0;
                    }
                }
            }
        } else {
            if (input[4] <= -1.0842508673667908) {
                var31 = 3.0;
            } else {
                var31 = 4.0;
            }
        }
    } else {
        var31 = 20.0;
    }
    double var32;
    if (input[1] <= -1.087333619594574) {
        var32 = 20.0;
    } else {
        if (input[0] <= 0.007858160912292078) {
            if (input[1] <= -0.7284165620803833) {
                if (input[6] <= 0.19184142351150513) {
                    var32 = 4.0;
                } else {
                    var32 = 0.0;
                }
            } else {
                if (input[0] <= -0.3847789168357849) {
                    var32 = 0.0;
                } else {
                    if (input[1] <= 0.6720007359981537) {
                        if (input[7] <= 0.5668401569128036) {
                            var32 = 1.0;
                        } else {
                            var32 = 4.0;
                        }
                    } else {
                        var32 = 0.0;
                    }
                }
            }
        } else {
            if (input[1] <= 0.7809576988220215) {
                var32 = 4.0;
            } else {
                var32 = 3.0;
            }
        }
    }
    double var33;
    if (input[0] <= 0.6622532606124878) {
        if (input[0] <= 0.007858160912292078) {
            if (input[0] <= -0.13756298273801804) {
                if (input[0] <= -0.3847789168357849) {
                    var33 = 0.0;
                } else {
                    if (input[7] <= -1.128477156162262) {
                        var33 = 1.0;
                    } else {
                        var33 = 0.0;
                    }
                }
            } else {
                if (input[1] <= -0.2060641199350357) {
                    var33 = 4.0;
                } else {
                    if (input[4] <= 0.2014945149421692) {
                        var33 = 0.0;
                    } else {
                        var33 = 1.0;
                    }
                }
            }
        } else {
            if (input[1] <= 0.6944330632686615) {
                var33 = 4.0;
            } else {
                var33 = 3.0;
            }
        }
    } else {
        var33 = 20.0;
    }
    double var34;
    if (input[0] <= 0.6767954230308533) {
        if (input[0] <= 0.007858160912292078) {
            if (input[1] <= -0.6034365445375443) {
                if (input[0] <= -0.8065001890063286) {
                    var34 = 0.0;
                } else {
                    var34 = 4.0;
                }
            } else {
                if (input[0] <= -0.3993210345506668) {
                    var34 = 0.0;
                } else {
                    if (input[1] <= 0.6720007359981537) {
                        var34 = 1.0;
                    } else {
                        var34 = 0.0;
                    }
                }
            }
        } else {
            if (input[1] <= 0.7296838164329529) {
                var34 = 4.0;
            } else {
                var34 = 3.0;
            }
        }
    } else {
        var34 = 20.0;
    }
    double var35;
    if (input[0] <= 0.6622532606124878) {
        if (input[0] <= 0.007858160912292078) {
            if (input[1] <= -0.6002319306135178) {
                if (input[6] <= 0.19184142351150513) {
                    var35 = 4.0;
                } else {
                    var35 = 0.0;
                }
            } else {
                if (input[0] <= -0.3847789168357849) {
                    var35 = 0.0;
                } else {
                    if (input[1] <= 0.7328884601593018) {
                        var35 = 1.0;
                    } else {
                        var35 = 0.0;
                    }
                }
            }
        } else {
            if (input[1] <= 0.7296838164329529) {
                var35 = 4.0;
            } else {
                var35 = 3.0;
            }
        }
    } else {
        var35 = 20.0;
    }
    double var36;
    if (input[1] <= -1.087333619594574) {
        var36 = 20.0;
    } else {
        if (input[0] <= -0.13756298273801804) {
            if (input[0] <= -0.3847789168357849) {
                var36 = 0.0;
            } else {
                if (input[7] <= -1.128477156162262) {
                    var36 = 1.0;
                } else {
                    var36 = 0.0;
                }
            }
        } else {
            if (input[1] <= 0.9283700287342072) {
                if (input[0] <= 0.022400274872779846) {
                    if (input[1] <= -0.20285950601100922) {
                        var36 = 4.0;
                    } else {
                        if (input[0] <= 0.007858160912292078) {
                            if (input[8] <= 0.7614806890487671) {
                                var36 = 1.0;
                            } else {
                                var36 = 0.0;
                            }
                        } else {
                            if (input[3] <= -0.26627208292484283) {
                                var36 = 4.0;
                            } else {
                                var36 = 3.0;
                            }
                        }
                    }
                } else {
                    var36 = 4.0;
                }
            } else {
                var36 = 0.0;
            }
        }
    }
    double var37;
    if (input[1] <= -1.087333619594574) {
        var37 = 20.0;
    } else {
        if (input[0] <= -0.13756298273801804) {
            if (input[0] <= -0.3847789168357849) {
                var37 = 0.0;
            } else {
                if (input[7] <= -1.128477156162262) {
                    var37 = 1.0;
                } else {
                    var37 = 0.0;
                }
            }
        } else {
            if (input[1] <= 0.7681392133235931) {
                if (input[7] <= 0.3696128875017166) {
                    if (input[0] <= 0.007858160912292078) {
                        var37 = 1.0;
                    } else {
                        var37 = 4.0;
                    }
                } else {
                    if (input[8] <= 1.003199964761734) {
                        var37 = 4.0;
                    } else {
                        var37 = 3.0;
                    }
                }
            } else {
                if (input[0] <= 0.007858160912292078) {
                    var37 = 0.0;
                } else {
                    var37 = 3.0;
                }
            }
        }
    }
    double var38;
    if (input[1] <= -1.087333619594574) {
        var38 = 20.0;
    } else {
        if (input[0] <= 0.007858160912292078) {
            if (input[1] <= -0.6002319306135178) {
                if (input[0] <= -0.8065001890063286) {
                    var38 = 0.0;
                } else {
                    var38 = 4.0;
                }
            } else {
                if (input[0] <= -0.3847789168357849) {
                    var38 = 0.0;
                } else {
                    if (input[1] <= 0.7008422911167145) {
                        var38 = 1.0;
                    } else {
                        var38 = 0.0;
                    }
                }
            }
        } else {
            if (input[1] <= 0.6431591808795929) {
                var38 = 4.0;
            } else {
                var38 = 3.0;
            }
        }
    }
    double var39;
    if (input[1] <= -1.087333619594574) {
        var39 = 20.0;
    } else {
        if (input[0] <= 0.007858160912292078) {
            if (input[1] <= -0.6034365445375443) {
                if (input[0] <= -0.7992291301488876) {
                    var39 = 0.0;
                } else {
                    var39 = 4.0;
                }
            } else {
                if (input[0] <= -0.3847789168357849) {
                    var39 = 0.0;
                } else {
                    if (input[1] <= 0.6848191916942596) {
                        var39 = 1.0;
                    } else {
                        var39 = 0.0;
                    }
                }
            }
        } else {
            if (input[1] <= 0.7296838164329529) {
                var39 = 4.0;
            } else {
                var39 = 3.0;
            }
        }
    }
    double var40;
    if (input[0] <= 0.6622532606124878) {
        if (input[0] <= 0.007858160912292078) {
            if (input[1] <= -0.6066411584615707) {
                if (input[0] <= -0.8065001890063286) {
                    var40 = 0.0;
                } else {
                    var40 = 4.0;
                }
            } else {
                if (input[0] <= -0.40659208595752716) {
                    var40 = 0.0;
                } else {
                    if (input[1] <= 0.6848191916942596) {
                        var40 = 1.0;
                    } else {
                        var40 = 0.0;
                    }
                }
            }
        } else {
            if (input[1] <= 0.6944330632686615) {
                var40 = 4.0;
            } else {
                var40 = 3.0;
            }
        }
    } else {
        var40 = 20.0;
    }
    double var41;
    if (input[0] <= 0.6695243418216705) {
        if (input[0] <= 0.007858160912292078) {
            if (input[1] <= -0.7252119481563568) {
                if (input[6] <= 0.19184142351150513) {
                    var41 = 4.0;
                } else {
                    var41 = 0.0;
                }
            } else {
                if (input[0] <= -0.3847789168357849) {
                    var41 = 0.0;
                } else {
                    if (input[1] <= 0.6655915081501007) {
                        if (input[1] <= -0.20285950601100922) {
                            var41 = 4.0;
                        } else {
                            var41 = 1.0;
                        }
                    } else {
                        var41 = 0.0;
                    }
                }
            }
        } else {
            if (input[1] <= 0.6944330632686615) {
                var41 = 4.0;
            } else {
                var41 = 3.0;
            }
        }
    } else {
        var41 = 20.0;
    }
    double var42;
    if (input[0] <= 0.6622532606124878) {
        if (input[0] <= 0.007858160912292078) {
            if (input[1] <= -0.6002319306135178) {
                if (input[6] <= 0.19184142351150513) {
                    var42 = 4.0;
                } else {
                    var42 = 0.0;
                }
            } else {
                if (input[0] <= -0.3847789168357849) {
                    var42 = 0.0;
                } else {
                    if (input[1] <= 0.6848191916942596) {
                        var42 = 1.0;
                    } else {
                        var42 = 0.0;
                    }
                }
            }
        } else {
            if (input[1] <= 0.784162312746048) {
                var42 = 4.0;
            } else {
                var42 = 3.0;
            }
        }
    } else {
        var42 = 20.0;
    }
    double var43;
    if (input[1] <= -1.087333619594574) {
        var43 = 20.0;
    } else {
        if (input[0] <= 0.007858160912292078) {
            if (input[1] <= -0.7252119481563568) {
                if (input[0] <= -0.8137713000178337) {
                    var43 = 0.0;
                } else {
                    var43 = 4.0;
                }
            } else {
                if (input[0] <= -0.3847789168357849) {
                    var43 = 0.0;
                } else {
                    if (input[1] <= 0.6720007359981537) {
                        if (input[7] <= 0.5668401569128036) {
                            var43 = 1.0;
                        } else {
                            var43 = 4.0;
                        }
                    } else {
                        var43 = 0.0;
                    }
                }
            }
        } else {
            if (input[1] <= 0.6944330632686615) {
                var43 = 4.0;
            } else {
                var43 = 3.0;
            }
        }
    }
    double var44;
    if (input[0] <= 0.6622532606124878) {
        if (input[0] <= 0.007858160912292078) {
            if (input[1] <= -0.6034365445375443) {
                if (input[0] <= -0.8065001890063286) {
                    var44 = 0.0;
                } else {
                    var44 = 4.0;
                }
            } else {
                if (input[0] <= -0.3847789168357849) {
                    var44 = 0.0;
                } else {
                    if (input[1] <= 0.7328884601593018) {
                        var44 = 1.0;
                    } else {
                        var44 = 0.0;
                    }
                }
            }
        } else {
            if (input[1] <= 0.6143176406621933) {
                var44 = 4.0;
            } else {
                var44 = 3.0;
            }
        }
    } else {
        var44 = 20.0;
    }
    double var45;
    if (input[1] <= -1.087333619594574) {
        var45 = 20.0;
    } else {
        if (input[0] <= 0.007858160912292078) {
            if (input[1] <= -0.5938226878643036) {
                if (input[0] <= -0.8065001890063286) {
                    var45 = 0.0;
                } else {
                    var45 = 4.0;
                }
            } else {
                if (input[0] <= -0.370236799120903) {
                    var45 = 0.0;
                } else {
                    if (input[1] <= 0.6720007359981537) {
                        var45 = 1.0;
                    } else {
                        var45 = 0.0;
                    }
                }
            }
        } else {
            if (input[0] <= 0.022400274872779846) {
                var45 = 3.0;
            } else {
                var45 = 4.0;
            }
        }
    }
    double var46;
    if (input[0] <= 0.6695243418216705) {
        if (input[0] <= 0.007858160912292078) {
            if (input[1] <= -0.6034365445375443) {
                if (input[6] <= 0.19184142351150513) {
                    var46 = 4.0;
                } else {
                    var46 = 0.0;
                }
            } else {
                if (input[0] <= -0.3847789168357849) {
                    var46 = 0.0;
                } else {
                    if (input[1] <= 0.6720007359981537) {
                        var46 = 1.0;
                    } else {
                        var46 = 0.0;
                    }
                }
            }
        } else {
            if (input[0] <= 0.02967133093625307) {
                var46 = 3.0;
            } else {
                var46 = 4.0;
            }
        }
    } else {
        var46 = 20.0;
    }
    double var47;
    if (input[0] <= 0.6622532606124878) {
        if (input[0] <= 0.007858160912292078) {
            if (input[1] <= -0.6034365445375443) {
                if (input[0] <= -0.8065001890063286) {
                    var47 = 0.0;
                } else {
                    var47 = 4.0;
                }
            } else {
                if (input[0] <= -0.3993210345506668) {
                    var47 = 0.0;
                } else {
                    if (input[1] <= 0.6848191916942596) {
                        var47 = 1.0;
                    } else {
                        var47 = 0.0;
                    }
                }
            }
        } else {
            if (input[1] <= 0.6431591808795929) {
                var47 = 4.0;
            } else {
                var47 = 3.0;
            }
        }
    } else {
        var47 = 20.0;
    }
    double var48;
    if (input[1] <= -1.087333619594574) {
        var48 = 20.0;
    } else {
        if (input[0] <= -0.13756298273801804) {
            if (input[0] <= -0.3993210345506668) {
                var48 = 0.0;
            } else {
                if (input[7] <= -1.128477156162262) {
                    var48 = 1.0;
                } else {
                    var48 = 0.0;
                }
            }
        } else {
            if (input[1] <= 0.9315746426582336) {
                if (input[7] <= 1.3567323088645935) {
                    if (input[0] <= 0.022400274872779846) {
                        if (input[0] <= -0.02122606709599495) {
                            var48 = 4.0;
                        } else {
                            if (input[0] <= 0.007858160912292078) {
                                var48 = 1.0;
                            } else {
                                if (input[1] <= 0.5470207035541534) {
                                    var48 = 4.0;
                                } else {
                                    var48 = 3.0;
                                }
                            }
                        }
                    } else {
                        var48 = 4.0;
                    }
                } else {
                    var48 = 0.0;
                }
            } else {
                var48 = 0.0;
            }
        }
    }
    double var49;
    if (input[0] <= 0.6695243418216705) {
        if (input[0] <= 0.007858160912292078) {
            if (input[1] <= -0.6034365445375443) {
                if (input[0] <= -0.8065001890063286) {
                    var49 = 0.0;
                } else {
                    var49 = 4.0;
                }
            } else {
                if (input[0] <= -0.3847789168357849) {
                    var49 = 0.0;
                } else {
                    if (input[1] <= 0.6848191916942596) {
                        var49 = 1.0;
                    } else {
                        var49 = 0.0;
                    }
                }
            }
        } else {
            if (input[1] <= 0.6944330632686615) {
                var49 = 4.0;
            } else {
                var49 = 3.0;
            }
        }
    } else {
        var49 = 20.0;
    }
    double var50;
    if (input[1] <= -1.084128975868225) {
        var50 = 20.0;
    } else {
        if (input[0] <= 0.007858160912292078) {
            if (input[1] <= -0.7252119481563568) {
                if (input[0] <= -0.8137713000178337) {
                    var50 = 0.0;
                } else {
                    var50 = 4.0;
                }
            } else {
                if (input[0] <= -0.3847789168357849) {
                    var50 = 0.0;
                } else {
                    if (input[1] <= 0.6720007359981537) {
                        if (input[1] <= -0.19965489208698273) {
                            var50 = 4.0;
                        } else {
                            var50 = 1.0;
                        }
                    } else {
                        var50 = 0.0;
                    }
                }
            }
        } else {
            if (input[1] <= 0.7296838164329529) {
                var50 = 4.0;
            } else {
                var50 = 3.0;
            }
        }
    }
    double var51;
    if (input[1] <= -1.087333619594574) {
        var51 = 20.0;
    } else {
        if (input[0] <= 0.007858160912292078) {
            if (input[1] <= -0.7252119481563568) {
                if (input[0] <= -0.8137713000178337) {
                    var51 = 0.0;
                } else {
                    var51 = 4.0;
                }
            } else {
                if (input[0] <= -0.3847789168357849) {
                    var51 = 0.0;
                } else {
                    if (input[1] <= 0.6720007359981537) {
                        if (input[1] <= -0.2060641199350357) {
                            var51 = 4.0;
                        } else {
                            var51 = 1.0;
                        }
                    } else {
                        var51 = 0.0;
                    }
                }
            }
        } else {
            if (input[1] <= 0.6944330632686615) {
                var51 = 4.0;
            } else {
                var51 = 3.0;
            }
        }
    }
    double var52;
    if (input[1] <= -1.087333619594574) {
        var52 = 20.0;
    } else {
        if (input[0] <= 0.007858160912292078) {
            if (input[1] <= -0.6002319306135178) {
                if (input[0] <= -0.7992291301488876) {
                    var52 = 0.0;
                } else {
                    var52 = 4.0;
                }
            } else {
                if (input[0] <= -0.3847789168357849) {
                    var52 = 0.0;
                } else {
                    if (input[1] <= 0.6848191916942596) {
                        var52 = 1.0;
                    } else {
                        var52 = 0.0;
                    }
                }
            }
        } else {
            if (input[1] <= 0.6303407251834869) {
                var52 = 4.0;
            } else {
                var52 = 3.0;
            }
        }
    }
    double var53;
    if (input[1] <= -1.087333619594574) {
        var53 = 20.0;
    } else {
        if (input[0] <= 0.007858160912292078) {
            if (input[1] <= -0.6034365445375443) {
                if (input[0] <= -0.8065001890063286) {
                    var53 = 0.0;
                } else {
                    var53 = 4.0;
                }
            } else {
                if (input[0] <= -0.3847789168357849) {
                    var53 = 0.0;
                } else {
                    if (input[1] <= 0.6720007359981537) {
                        var53 = 1.0;
                    } else {
                        var53 = 0.0;
                    }
                }
            }
        } else {
            if (input[1] <= 0.6431591808795929) {
                var53 = 4.0;
            } else {
                var53 = 3.0;
            }
        }
    }
    double var54;
    if (input[1] <= -1.087333619594574) {
        var54 = 20.0;
    } else {
        if (input[0] <= 0.007858160912292078) {
            if (input[1] <= -0.6034365445375443) {
                if (input[0] <= -0.8065001890063286) {
                    var54 = 0.0;
                } else {
                    var54 = 4.0;
                }
            } else {
                if (input[0] <= -0.3847789168357849) {
                    var54 = 0.0;
                } else {
                    if (input[1] <= 0.6848191916942596) {
                        var54 = 1.0;
                    } else {
                        var54 = 0.0;
                    }
                }
            }
        } else {
            if (input[1] <= 0.7296838164329529) {
                var54 = 4.0;
            } else {
                var54 = 3.0;
            }
        }
    }
    double var55;
    if (input[1] <= -1.087333619594574) {
        var55 = 20.0;
    } else {
        if (input[0] <= 0.007858160912292078) {
            if (input[0] <= -0.13756298273801804) {
                if (input[0] <= -0.3847789168357849) {
                    var55 = 0.0;
                } else {
                    if (input[1] <= 0.7360930740833282) {
                        var55 = 1.0;
                    } else {
                        var55 = 0.0;
                    }
                }
            } else {
                if (input[1] <= -0.20285950601100922) {
                    var55 = 4.0;
                } else {
                    if (input[1] <= 0.5470207035541534) {
                        var55 = 1.0;
                    } else {
                        var55 = 0.0;
                    }
                }
            }
        } else {
            if (input[1] <= 0.6431591808795929) {
                var55 = 4.0;
            } else {
                var55 = 3.0;
            }
        }
    }
    double var56;
    if (input[0] <= 0.6622532606124878) {
        if (input[0] <= 0.007858160912292078) {
            if (input[1] <= -0.6034365445375443) {
                if (input[0] <= -0.8065001890063286) {
                    var56 = 0.0;
                } else {
                    var56 = 4.0;
                }
            } else {
                if (input[0] <= -0.3847789168357849) {
                    var56 = 0.0;
                } else {
                    if (input[1] <= 0.6720007359981537) {
                        var56 = 1.0;
                    } else {
                        var56 = 0.0;
                    }
                }
            }
        } else {
            if (input[1] <= 0.7328884303569794) {
                var56 = 4.0;
            } else {
                var56 = 3.0;
            }
        }
    } else {
        var56 = 20.0;
    }
    double var57;
    if (input[1] <= -1.087333619594574) {
        var57 = 20.0;
    } else {
        if (input[0] <= 0.007858160912292078) {
            if (input[1] <= -0.6002319306135178) {
                if (input[6] <= 0.19184142351150513) {
                    var57 = 4.0;
                } else {
                    var57 = 0.0;
                }
            } else {
                if (input[0] <= -0.3847789168357849) {
                    var57 = 0.0;
                } else {
                    if (input[1] <= 0.6720007359981537) {
                        var57 = 1.0;
                    } else {
                        var57 = 0.0;
                    }
                }
            }
        } else {
            if (input[1] <= 0.6944330632686615) {
                var57 = 4.0;
            } else {
                var57 = 3.0;
            }
        }
    }
    double var58;
    if (input[0] <= 0.6695243418216705) {
        if (input[0] <= 0.007858160912292078) {
            if (input[0] <= -0.1448340341448784) {
                if (input[0] <= -0.3847789168357849) {
                    var58 = 0.0;
                } else {
                    if (input[1] <= 0.7008422911167145) {
                        var58 = 1.0;
                    } else {
                        var58 = 0.0;
                    }
                }
            } else {
                if (input[1] <= -0.20285950601100922) {
                    var58 = 4.0;
                } else {
                    if (input[1] <= 0.5470207035541534) {
                        var58 = 1.0;
                    } else {
                        var58 = 0.0;
                    }
                }
            }
        } else {
            if (input[1] <= 0.6431591808795929) {
                var58 = 4.0;
            } else {
                var58 = 3.0;
            }
        }
    } else {
        var58 = 20.0;
    }
    double var59;
    if (input[1] <= -1.087333619594574) {
        var59 = 20.0;
    } else {
        if (input[0] <= 0.007858160912292078) {
            if (input[1] <= -0.7123934924602509) {
                if (input[0] <= -0.8065001890063286) {
                    var59 = 0.0;
                } else {
                    var59 = 4.0;
                }
            } else {
                if (input[0] <= -0.3847789168357849) {
                    var59 = 0.0;
                } else {
                    if (input[1] <= 0.6848191916942596) {
                        var59 = 1.0;
                    } else {
                        var59 = 0.0;
                    }
                }
            }
        } else {
            if (input[1] <= 0.6944330632686615) {
                var59 = 4.0;
            } else {
                var59 = 3.0;
            }
        }
    }
    double var60;
    if (input[1] <= -1.087333619594574) {
        var60 = 20.0;
    } else {
        if (input[0] <= 0.007858160912292078) {
            if (input[1] <= -0.6034365445375443) {
                if (input[6] <= 0.19184142351150513) {
                    var60 = 4.0;
                } else {
                    var60 = 0.0;
                }
            } else {
                if (input[0] <= -0.3847789168357849) {
                    var60 = 0.0;
                } else {
                    if (input[1] <= 0.6848191916942596) {
                        var60 = 1.0;
                    } else {
                        var60 = 0.0;
                    }
                }
            }
        } else {
            if (input[1] <= 0.6944330632686615) {
                var60 = 4.0;
            } else {
                var60 = 3.0;
            }
        }
    }
    double var61;
    if (input[0] <= 0.6695243418216705) {
        if (input[0] <= 0.007858160912292078) {
            if (input[1] <= -0.6034365445375443) {
                if (input[0] <= -0.8065001890063286) {
                    var61 = 0.0;
                } else {
                    var61 = 4.0;
                }
            } else {
                if (input[0] <= -0.3847789168357849) {
                    var61 = 0.0;
                } else {
                    if (input[1] <= 0.6720007359981537) {
                        var61 = 1.0;
                    } else {
                        var61 = 0.0;
                    }
                }
            }
        } else {
            if (input[1] <= 0.7809576988220215) {
                var61 = 4.0;
            } else {
                var61 = 3.0;
            }
        }
    } else {
        var61 = 20.0;
    }
    double var62;
    if (input[1] <= -1.087333619594574) {
        var62 = 20.0;
    } else {
        if (input[0] <= 0.007858160912292078) {
            if (input[1] <= -0.6002319306135178) {
                if (input[0] <= -0.8065001890063286) {
                    var62 = 0.0;
                } else {
                    var62 = 4.0;
                }
            } else {
                if (input[0] <= -0.40659208595752716) {
                    var62 = 0.0;
                } else {
                    if (input[1] <= 0.6720007359981537) {
                        var62 = 1.0;
                    } else {
                        var62 = 0.0;
                    }
                }
            }
        } else {
            if (input[1] <= 0.7809576988220215) {
                var62 = 4.0;
            } else {
                var62 = 3.0;
            }
        }
    }
    double var63;
    if (input[1] <= -1.087333619594574) {
        var63 = 20.0;
    } else {
        if (input[0] <= 0.007858160912292078) {
            if (input[1] <= -0.6034365445375443) {
                if (input[6] <= 0.19184142351150513) {
                    var63 = 4.0;
                } else {
                    var63 = 0.0;
                }
            } else {
                if (input[0] <= -0.40659208595752716) {
                    var63 = 0.0;
                } else {
                    if (input[1] <= 0.6687961220741272) {
                        var63 = 1.0;
                    } else {
                        var63 = 0.0;
                    }
                }
            }
        } else {
            if (input[1] <= 0.7264792025089264) {
                var63 = 4.0;
            } else {
                var63 = 3.0;
            }
        }
    }
    double var64;
    if (input[0] <= 0.6622532606124878) {
        if (input[0] <= 0.007858160912292078) {
            if (input[1] <= -0.6002319306135178) {
                if (input[0] <= -0.8065001890063286) {
                    var64 = 0.0;
                } else {
                    var64 = 4.0;
                }
            } else {
                if (input[0] <= -0.3847789168357849) {
                    var64 = 0.0;
                } else {
                    if (input[1] <= 0.6720007359981537) {
                        var64 = 1.0;
                    } else {
                        var64 = 0.0;
                    }
                }
            }
        } else {
            if (input[1] <= 0.6944330632686615) {
                var64 = 4.0;
            } else {
                var64 = 3.0;
            }
        }
    } else {
        var64 = 20.0;
    }
    double var65;
    if (input[0] <= 0.6622532606124878) {
        if (input[0] <= 0.007858160912292078) {
            if (input[1] <= -0.6002319306135178) {
                if (input[0] <= -0.8065001890063286) {
                    var65 = 0.0;
                } else {
                    var65 = 4.0;
                }
            } else {
                if (input[0] <= -0.3847789168357849) {
                    var65 = 0.0;
                } else {
                    if (input[1] <= 0.6720007359981537) {
                        var65 = 1.0;
                    } else {
                        var65 = 0.0;
                    }
                }
            }
        } else {
            if (input[1] <= 0.6399545669555664) {
                var65 = 4.0;
            } else {
                var65 = 3.0;
            }
        }
    } else {
        var65 = 20.0;
    }
    double var66;
    if (input[0] <= 0.6695243418216705) {
        if (input[0] <= 0.007858160912292078) {
            if (input[1] <= -0.7188027203083038) {
                if (input[6] <= 0.19184142351150513) {
                    var66 = 4.0;
                } else {
                    var66 = 0.0;
                }
            } else {
                if (input[0] <= -0.3847789168357849) {
                    var66 = 0.0;
                } else {
                    if (input[1] <= 0.6848191916942596) {
                        var66 = 1.0;
                    } else {
                        var66 = 0.0;
                    }
                }
            }
        } else {
            if (input[1] <= 0.7296838164329529) {
                var66 = 4.0;
            } else {
                var66 = 3.0;
            }
        }
    } else {
        var66 = 20.0;
    }
    double var67;
    if (input[0] <= 0.6622532606124878) {
        if (input[0] <= 0.007858160912292078) {
            if (input[1] <= -0.6002319306135178) {
                if (input[0] <= -0.8065001890063286) {
                    var67 = 0.0;
                } else {
                    var67 = 4.0;
                }
            } else {
                if (input[0] <= -0.40659208595752716) {
                    var67 = 0.0;
                } else {
                    if (input[1] <= 0.6720007359981537) {
                        var67 = 1.0;
                    } else {
                        var67 = 0.0;
                    }
                }
            }
        } else {
            if (input[1] <= 0.6944330632686615) {
                var67 = 4.0;
            } else {
                var67 = 3.0;
            }
        }
    } else {
        var67 = 20.0;
    }
    double var68;
    if (input[1] <= -1.087333619594574) {
        var68 = 20.0;
    } else {
        if (input[0] <= 0.007858160912292078) {
            if (input[1] <= -0.6002319306135178) {
                if (input[6] <= 0.19184142351150513) {
                    var68 = 4.0;
                } else {
                    var68 = 0.0;
                }
            } else {
                if (input[0] <= -0.3993210345506668) {
                    var68 = 0.0;
                } else {
                    if (input[1] <= 0.6720007359981537) {
                        var68 = 1.0;
                    } else {
                        var68 = 0.0;
                    }
                }
            }
        } else {
            if (input[1] <= 0.6175222545862198) {
                var68 = 4.0;
            } else {
                var68 = 3.0;
            }
        }
    }
    double var69;
    if (input[1] <= -1.087333619594574) {
        var69 = 20.0;
    } else {
        if (input[0] <= 0.007858160912292078) {
            if (input[1] <= -0.7123934924602509) {
                if (input[0] <= -0.8065001890063286) {
                    var69 = 0.0;
                } else {
                    var69 = 4.0;
                }
            } else {
                if (input[0] <= -0.40659208595752716) {
                    var69 = 0.0;
                } else {
                    if (input[1] <= 0.6720007359981537) {
                        var69 = 1.0;
                    } else {
                        var69 = 0.0;
                    }
                }
            }
        } else {
            if (input[1] <= 0.6431591808795929) {
                var69 = 4.0;
            } else {
                var69 = 3.0;
            }
        }
    }
    double var70;
    if (input[0] <= 0.6622532606124878) {
        if (input[0] <= 0.007858160912292078) {
            if (input[1] <= -0.7123934924602509) {
                if (input[6] <= 0.19184142351150513) {
                    var70 = 4.0;
                } else {
                    var70 = 0.0;
                }
            } else {
                if (input[0] <= -0.3993210345506668) {
                    var70 = 0.0;
                } else {
                    if (input[1] <= 0.6720007359981537) {
                        if (input[7] <= 0.5668401569128036) {
                            var70 = 1.0;
                        } else {
                            var70 = 4.0;
                        }
                    } else {
                        var70 = 0.0;
                    }
                }
            }
        } else {
            if (input[1] <= 0.7296838164329529) {
                var70 = 4.0;
            } else {
                var70 = 3.0;
            }
        }
    } else {
        var70 = 20.0;
    }
    double var71;
    if (input[0] <= 0.6695243418216705) {
        if (input[0] <= 0.007858160912292078) {
            if (input[1] <= -0.6002319306135178) {
                if (input[0] <= -0.8065001890063286) {
                    var71 = 0.0;
                } else {
                    var71 = 4.0;
                }
            } else {
                if (input[0] <= -0.40659208595752716) {
                    var71 = 0.0;
                } else {
                    if (input[1] <= 0.6720007359981537) {
                        var71 = 1.0;
                    } else {
                        var71 = 0.0;
                    }
                }
            }
        } else {
            if (input[1] <= 0.7296838164329529) {
                var71 = 4.0;
            } else {
                var71 = 3.0;
            }
        }
    } else {
        var71 = 20.0;
    }
    double var72;
    if (input[1] <= -1.087333619594574) {
        var72 = 20.0;
    } else {
        if (input[0] <= 0.007858160912292078) {
            if (input[1] <= -0.6034365445375443) {
                if (input[0] <= -0.8065001890063286) {
                    var72 = 0.0;
                } else {
                    var72 = 4.0;
                }
            } else {
                if (input[0] <= -0.3993210345506668) {
                    var72 = 0.0;
                } else {
                    if (input[1] <= 0.6944330632686615) {
                        var72 = 1.0;
                    } else {
                        var72 = 0.0;
                    }
                }
            }
        } else {
            if (input[1] <= 0.6944330632686615) {
                var72 = 4.0;
            } else {
                var72 = 3.0;
            }
        }
    }
    double var73;
    if (input[1] <= -1.087333619594574) {
        var73 = 20.0;
    } else {
        if (input[0] <= 0.007858160912292078) {
            if (input[1] <= -0.6002319306135178) {
                if (input[0] <= -0.8065001890063286) {
                    var73 = 0.0;
                } else {
                    var73 = 4.0;
                }
            } else {
                if (input[0] <= -0.40659208595752716) {
                    var73 = 0.0;
                } else {
                    if (input[1] <= 0.6720007359981537) {
                        var73 = 1.0;
                    } else {
                        var73 = 0.0;
                    }
                }
            }
        } else {
            if (input[1] <= 0.6431591808795929) {
                var73 = 4.0;
            } else {
                var73 = 3.0;
            }
        }
    }
    double var74;
    if (input[1] <= -1.087333619594574) {
        var74 = 20.0;
    } else {
        if (input[0] <= -0.13756298273801804) {
            if (input[0] <= -0.3847789168357849) {
                var74 = 0.0;
            } else {
                if (input[7] <= -1.128477156162262) {
                    var74 = 1.0;
                } else {
                    var74 = 0.0;
                }
            }
        } else {
            if (input[1] <= 0.9315746426582336) {
                if (input[0] <= 0.022400274872779846) {
                    if (input[1] <= -0.20285950601100922) {
                        var74 = 4.0;
                    } else {
                        if (input[0] <= 0.007858160912292078) {
                            if (input[8] <= 0.9098998308181763) {
                                var74 = 1.0;
                            } else {
                                var74 = 0.0;
                            }
                        } else {
                            if (input[1] <= 0.5470207035541534) {
                                var74 = 4.0;
                            } else {
                                var74 = 3.0;
                            }
                        }
                    }
                } else {
                    var74 = 4.0;
                }
            } else {
                var74 = 0.0;
            }
        }
    }
    double var75;
    if (input[1] <= -1.087333619594574) {
        var75 = 20.0;
    } else {
        if (input[0] <= 0.007858160912292078) {
            if (input[1] <= -0.6002319306135178) {
                if (input[0] <= -0.8065001890063286) {
                    var75 = 0.0;
                } else {
                    var75 = 4.0;
                }
            } else {
                if (input[0] <= -0.3847789168357849) {
                    var75 = 0.0;
                } else {
                    if (input[1] <= 0.6720007359981537) {
                        var75 = 1.0;
                    } else {
                        var75 = 0.0;
                    }
                }
            }
        } else {
            if (input[1] <= 0.6944330632686615) {
                var75 = 4.0;
            } else {
                var75 = 3.0;
            }
        }
    }
    double var76;
    if (input[1] <= -1.087333619594574) {
        var76 = 20.0;
    } else {
        if (input[0] <= 0.007858160912292078) {
            if (input[1] <= -0.6034365445375443) {
                if (input[6] <= 0.19184142351150513) {
                    var76 = 4.0;
                } else {
                    var76 = 0.0;
                }
            } else {
                if (input[0] <= -0.3993210345506668) {
                    var76 = 0.0;
                } else {
                    if (input[1] <= 0.6720007359981537) {
                        var76 = 1.0;
                    } else {
                        var76 = 0.0;
                    }
                }
            }
        } else {
            if (input[1] <= 0.6399545669555664) {
                var76 = 4.0;
            } else {
                var76 = 3.0;
            }
        }
    }
    double var77;
    if (input[1] <= -1.0873335599899292) {
        var77 = 20.0;
    } else {
        if (input[0] <= 0.007858160912292078) {
            if (input[1] <= -0.6034365445375443) {
                if (input[0] <= -0.8065001890063286) {
                    var77 = 0.0;
                } else {
                    var77 = 4.0;
                }
            } else {
                if (input[0] <= -0.3847789168357849) {
                    var77 = 0.0;
                } else {
                    if (input[1] <= 0.6848191916942596) {
                        var77 = 1.0;
                    } else {
                        var77 = 0.0;
                    }
                }
            }
        } else {
            if (input[1] <= 0.6431591808795929) {
                var77 = 4.0;
            } else {
                var77 = 3.0;
            }
        }
    }
    double var78;
    if (input[1] <= -1.087333619594574) {
        var78 = 20.0;
    } else {
        if (input[0] <= 0.007858160912292078) {
            if (input[1] <= -0.6034365445375443) {
                if (input[0] <= -0.8065001890063286) {
                    var78 = 0.0;
                } else {
                    var78 = 4.0;
                }
            } else {
                if (input[0] <= -0.3847789168357849) {
                    var78 = 0.0;
                } else {
                    if (input[1] <= 0.6720007359981537) {
                        var78 = 1.0;
                    } else {
                        var78 = 0.0;
                    }
                }
            }
        } else {
            if (input[1] <= 0.6944330632686615) {
                var78 = 4.0;
            } else {
                var78 = 3.0;
            }
        }
    }
    double var79;
    if (input[1] <= -1.087333619594574) {
        var79 = 20.0;
    } else {
        if (input[0] <= 0.007858160912292078) {
            if (input[1] <= -0.6034365445375443) {
                if (input[6] <= 0.19184142351150513) {
                    var79 = 4.0;
                } else {
                    var79 = 0.0;
                }
            } else {
                if (input[0] <= -0.3847789168357849) {
                    var79 = 0.0;
                } else {
                    if (input[1] <= 0.6720007359981537) {
                        var79 = 1.0;
                    } else {
                        var79 = 0.0;
                    }
                }
            }
        } else {
            if (input[1] <= 0.6944330632686615) {
                var79 = 4.0;
            } else {
                var79 = 3.0;
            }
        }
    }
    double var80;
    if (input[1] <= -1.087333619594574) {
        var80 = 20.0;
    } else {
        if (input[0] <= 0.007858160912292078) {
            if (input[1] <= -0.6034365445375443) {
                if (input[0] <= -0.8065001890063286) {
                    var80 = 0.0;
                } else {
                    var80 = 4.0;
                }
            } else {
                if (input[0] <= -0.3847789168357849) {
                    var80 = 0.0;
                } else {
                    if (input[1] <= 0.7008422911167145) {
                        var80 = 1.0;
                    } else {
                        var80 = 0.0;
                    }
                }
            }
        } else {
            if (input[1] <= 0.7296838164329529) {
                var80 = 4.0;
            } else {
                var80 = 3.0;
            }
        }
    }
    double var81;
    if (input[0] <= 0.6695243418216705) {
        if (input[0] <= 0.007858160912292078) {
            if (input[1] <= -0.6002319306135178) {
                if (input[0] <= -0.8065001890063286) {
                    var81 = 0.0;
                } else {
                    var81 = 4.0;
                }
            } else {
                if (input[0] <= -0.3847789168357849) {
                    var81 = 0.0;
                } else {
                    if (input[1] <= 0.6720007359981537) {
                        var81 = 1.0;
                    } else {
                        var81 = 0.0;
                    }
                }
            }
        } else {
            if (input[1] <= 0.6944330632686615) {
                var81 = 4.0;
            } else {
                var81 = 3.0;
            }
        }
    } else {
        var81 = 20.0;
    }
    double var82;
    if (input[0] <= 0.6695243418216705) {
        if (input[0] <= 0.007858160912292078) {
            if (input[1] <= -0.6034365445375443) {
                if (input[6] <= 0.19184142351150513) {
                    var82 = 4.0;
                } else {
                    var82 = 0.0;
                }
            } else {
                if (input[0] <= -0.3993210345506668) {
                    var82 = 0.0;
                } else {
                    if (input[1] <= 0.6720007359981537) {
                        var82 = 1.0;
                    } else {
                        var82 = 0.0;
                    }
                }
            }
        } else {
            if (input[1] <= 0.7168653607368469) {
                var82 = 4.0;
            } else {
                var82 = 3.0;
            }
        }
    } else {
        var82 = 20.0;
    }
    double var83;
    if (input[0] <= 0.6695243418216705) {
        if (input[0] <= 0.007858160912292078) {
            if (input[1] <= -0.6002319306135178) {
                if (input[6] <= 0.19184142351150513) {
                    var83 = 4.0;
                } else {
                    var83 = 0.0;
                }
            } else {
                if (input[0] <= -0.40659208595752716) {
                    var83 = 0.0;
                } else {
                    if (input[1] <= 0.6848191916942596) {
                        var83 = 1.0;
                    } else {
                        var83 = 0.0;
                    }
                }
            }
        } else {
            if (input[1] <= 0.6944330632686615) {
                var83 = 4.0;
            } else {
                var83 = 3.0;
            }
        }
    } else {
        var83 = 20.0;
    }
    double var84;
    if (input[0] <= 0.6622532606124878) {
        if (input[0] <= 0.007858160912292078) {
            if (input[1] <= -0.6034365445375443) {
                if (input[0] <= -0.8065001890063286) {
                    var84 = 0.0;
                } else {
                    var84 = 4.0;
                }
            } else {
                if (input[0] <= -0.3847789168357849) {
                    var84 = 0.0;
                } else {
                    if (input[1] <= 0.7008422911167145) {
                        var84 = 1.0;
                    } else {
                        var84 = 0.0;
                    }
                }
            }
        } else {
            if (input[1] <= 0.6944330632686615) {
                var84 = 4.0;
            } else {
                var84 = 3.0;
            }
        }
    } else {
        var84 = 20.0;
    }
    double var85;
    if (input[1] <= -1.087333619594574) {
        var85 = 20.0;
    } else {
        if (input[0] <= 0.007858160912292078) {
            if (input[1] <= -0.6002319306135178) {
                if (input[0] <= -0.8065001890063286) {
                    var85 = 0.0;
                } else {
                    var85 = 4.0;
                }
            } else {
                if (input[0] <= -0.40659208595752716) {
                    var85 = 0.0;
                } else {
                    if (input[1] <= 0.6720007359981537) {
                        var85 = 1.0;
                    } else {
                        var85 = 0.0;
                    }
                }
            }
        } else {
            if (input[1] <= 0.6944330632686615) {
                var85 = 4.0;
            } else {
                var85 = 3.0;
            }
        }
    }
    double var86;
    if (input[1] <= -1.087333619594574) {
        var86 = 20.0;
    } else {
        if (input[0] <= 0.007858160912292078) {
            if (input[1] <= -0.6034365445375443) {
                if (input[6] <= 0.19184142351150513) {
                    var86 = 4.0;
                } else {
                    var86 = 0.0;
                }
            } else {
                if (input[0] <= -0.3847789168357849) {
                    var86 = 0.0;
                } else {
                    if (input[1] <= 0.6720007359981537) {
                        var86 = 1.0;
                    } else {
                        var86 = 0.0;
                    }
                }
            }
        } else {
            if (input[1] <= 0.6944330632686615) {
                var86 = 4.0;
            } else {
                var86 = 3.0;
            }
        }
    }
    double var87;
    if (input[0] <= 0.6622532606124878) {
        if (input[0] <= 0.007858160912292078) {
            if (input[1] <= -0.6034365445375443) {
                if (input[6] <= 0.19184142351150513) {
                    var87 = 4.0;
                } else {
                    var87 = 0.0;
                }
            } else {
                if (input[0] <= -0.3847789168357849) {
                    var87 = 0.0;
                } else {
                    if (input[1] <= 0.7328884601593018) {
                        var87 = 1.0;
                    } else {
                        var87 = 0.0;
                    }
                }
            }
        } else {
            if (input[1] <= 0.6143176406621933) {
                var87 = 4.0;
            } else {
                var87 = 3.0;
            }
        }
    } else {
        var87 = 20.0;
    }
    double var88;
    if (input[1] <= -1.087333619594574) {
        var88 = 20.0;
    } else {
        if (input[0] <= 0.007858160912292078) {
            if (input[1] <= -0.7123934924602509) {
                if (input[6] <= 0.19184142351150513) {
                    var88 = 4.0;
                } else {
                    var88 = 0.0;
                }
            } else {
                if (input[0] <= -0.3993210345506668) {
                    var88 = 0.0;
                } else {
                    if (input[1] <= 0.6720007359981537) {
                        var88 = 1.0;
                    } else {
                        var88 = 0.0;
                    }
                }
            }
        } else {
            if (input[1] <= 0.6399545669555664) {
                var88 = 4.0;
            } else {
                var88 = 3.0;
            }
        }
    }
    double var89;
    if (input[0] <= 0.6695243418216705) {
        if (input[0] <= 0.007858160912292078) {
            if (input[1] <= -0.6002319306135178) {
                if (input[0] <= -0.8065001890063286) {
                    var89 = 0.0;
                } else {
                    var89 = 4.0;
                }
            } else {
                if (input[0] <= -0.3847789168357849) {
                    var89 = 0.0;
                } else {
                    if (input[1] <= 0.6720007359981537) {
                        var89 = 1.0;
                    } else {
                        var89 = 0.0;
                    }
                }
            }
        } else {
            if (input[1] <= 0.7264792025089264) {
                var89 = 4.0;
            } else {
                var89 = 3.0;
            }
        }
    } else {
        var89 = 20.0;
    }
    double var90;
    if (input[0] <= 0.6622532606124878) {
        if (input[0] <= 0.007858160912292078) {
            if (input[1] <= -0.6002319306135178) {
                if (input[0] <= -0.8065001890063286) {
                    var90 = 0.0;
                } else {
                    var90 = 4.0;
                }
            } else {
                if (input[0] <= -0.3847789168357849) {
                    var90 = 0.0;
                } else {
                    if (input[1] <= 0.6720007359981537) {
                        var90 = 1.0;
                    } else {
                        var90 = 0.0;
                    }
                }
            }
        } else {
            if (input[1] <= 0.7809576988220215) {
                var90 = 4.0;
            } else {
                var90 = 3.0;
            }
        }
    } else {
        var90 = 20.0;
    }
    double var91;
    if (input[1] <= -1.090538203716278) {
        var91 = 20.0;
    } else {
        if (input[0] <= 0.007858160912292078) {
            if (input[1] <= -0.6002319306135178) {
                if (input[6] <= 0.19184142351150513) {
                    var91 = 4.0;
                } else {
                    var91 = 0.0;
                }
            } else {
                if (input[0] <= -0.3993210345506668) {
                    var91 = 0.0;
                } else {
                    if (input[1] <= 0.6848191916942596) {
                        var91 = 1.0;
                    } else {
                        var91 = 0.0;
                    }
                }
            }
        } else {
            if (input[1] <= 0.6399545669555664) {
                var91 = 4.0;
            } else {
                var91 = 3.0;
            }
        }
    }
    double var92;
    if (input[0] <= 0.6695243418216705) {
        if (input[0] <= 0.007858160912292078) {
            if (input[1] <= -0.6034365445375443) {
                if (input[6] <= 0.19184142351150513) {
                    var92 = 4.0;
                } else {
                    var92 = 0.0;
                }
            } else {
                if (input[0] <= -0.3993210345506668) {
                    var92 = 0.0;
                } else {
                    if (input[1] <= 0.6720007359981537) {
                        var92 = 1.0;
                    } else {
                        var92 = 0.0;
                    }
                }
            }
        } else {
            if (input[1] <= 0.7809576988220215) {
                var92 = 4.0;
            } else {
                var92 = 3.0;
            }
        }
    } else {
        var92 = 20.0;
    }
    double var93;
    if (input[1] <= -1.090538203716278) {
        var93 = 20.0;
    } else {
        if (input[0] <= 0.007858160912292078) {
            if (input[1] <= -0.6002319306135178) {
                if (input[0] <= -0.8065001890063286) {
                    var93 = 0.0;
                } else {
                    var93 = 4.0;
                }
            } else {
                if (input[0] <= -0.3847789168357849) {
                    var93 = 0.0;
                } else {
                    if (input[1] <= 0.6848191916942596) {
                        var93 = 1.0;
                    } else {
                        var93 = 0.0;
                    }
                }
            }
        } else {
            if (input[1] <= 0.6944330632686615) {
                var93 = 4.0;
            } else {
                var93 = 3.0;
            }
        }
    }
    double var94;
    if (input[1] <= -1.087333619594574) {
        var94 = 20.0;
    } else {
        if (input[0] <= 0.007858160912292078) {
            if (input[1] <= -0.6034365445375443) {
                if (input[0] <= -0.8065001890063286) {
                    var94 = 0.0;
                } else {
                    var94 = 4.0;
                }
            } else {
                if (input[0] <= -0.3847789168357849) {
                    var94 = 0.0;
                } else {
                    if (input[1] <= 0.6720007359981537) {
                        var94 = 1.0;
                    } else {
                        var94 = 0.0;
                    }
                }
            }
        } else {
            if (input[1] <= 0.6944330632686615) {
                var94 = 4.0;
            } else {
                var94 = 3.0;
            }
        }
    }
    double var95;
    if (input[0] <= 0.6695243418216705) {
        if (input[0] <= 0.007858160912292078) {
            if (input[1] <= -0.6002319306135178) {
                if (input[6] <= 0.19184142351150513) {
                    var95 = 4.0;
                } else {
                    var95 = 0.0;
                }
            } else {
                if (input[0] <= -0.3847789168357849) {
                    var95 = 0.0;
                } else {
                    if (input[1] <= 0.7296838462352753) {
                        var95 = 1.0;
                    } else {
                        var95 = 0.0;
                    }
                }
            }
        } else {
            if (input[1] <= 0.6399545669555664) {
                var95 = 4.0;
            } else {
                var95 = 3.0;
            }
        }
    } else {
        var95 = 20.0;
    }
    double var96;
    if (input[0] <= 0.6695243418216705) {
        if (input[0] <= 0.007858160912292078) {
            if (input[1] <= -0.6034365445375443) {
                if (input[0] <= -0.8065001890063286) {
                    var96 = 0.0;
                } else {
                    var96 = 4.0;
                }
            } else {
                if (input[0] <= -0.3847789168357849) {
                    var96 = 0.0;
                } else {
                    if (input[1] <= 0.7008422911167145) {
                        var96 = 1.0;
                    } else {
                        var96 = 0.0;
                    }
                }
            }
        } else {
            if (input[1] <= 0.6944330632686615) {
                var96 = 4.0;
            } else {
                var96 = 3.0;
            }
        }
    } else {
        var96 = 20.0;
    }
    double var97;
    if (input[1] <= -1.087333619594574) {
        var97 = 20.0;
    } else {
        if (input[0] <= 0.007858160912292078) {
            if (input[1] <= -0.6002319306135178) {
                if (input[6] <= 0.19184142351150513) {
                    var97 = 4.0;
                } else {
                    var97 = 0.0;
                }
            } else {
                if (input[0] <= -0.40659208595752716) {
                    var97 = 0.0;
                } else {
                    if (input[1] <= 0.6720007359981537) {
                        var97 = 1.0;
                    } else {
                        var97 = 0.0;
                    }
                }
            }
        } else {
            if (input[1] <= 0.6944330632686615) {
                var97 = 4.0;
            } else {
                var97 = 3.0;
            }
        }
    }
    double var98;
    if (input[1] <= -1.087333619594574) {
        var98 = 20.0;
    } else {
        if (input[0] <= 0.007858160912292078) {
            if (input[1] <= -0.6034365445375443) {
                if (input[0] <= -0.8065001890063286) {
                    var98 = 0.0;
                } else {
                    var98 = 4.0;
                }
            } else {
                if (input[0] <= -0.3847789168357849) {
                    var98 = 0.0;
                } else {
                    if (input[1] <= 0.6720007359981537) {
                        var98 = 1.0;
                    } else {
                        var98 = 0.0;
                    }
                }
            }
        } else {
            if (input[1] <= 0.6944330632686615) {
                var98 = 4.0;
            } else {
                var98 = 3.0;
            }
        }
    }
    double var99;
    if (input[0] <= 0.6695243418216705) {
        if (input[0] <= 0.007858160912292078) {
            if (input[1] <= -0.7252119481563568) {
                if (input[0] <= -0.8065002411603928) {
                    var99 = 0.0;
                } else {
                    var99 = 4.0;
                }
            } else {
                if (input[0] <= -0.3847789168357849) {
                    var99 = 0.0;
                } else {
                    if (input[1] <= 0.6720007359981537) {
                        var99 = 1.0;
                    } else {
                        var99 = 0.0;
                    }
                }
            }
        } else {
            if (input[1] <= 0.7296838164329529) {
                var99 = 4.0;
            } else {
                var99 = 3.0;
            }
        }
    } else {
        var99 = 20.0;
    }
    return (var0 + var1 + var2 + var3 + var4 + var5 + var6 + var7 + var8 + var9 + var10 + var11 + var12 + var13 + var14 + var15 + var16 + var17 + var18 + var19 + var20 + var21 + var22 + var23 + var24 + var25 + var26 + var27 + var28 + var29 + var30 + var31 + var32 + var33 + var34 + var35 + var36 + var37 + var38 + var39 + var40 + var41 + var42 + var43 + var44 + var45 + var46 + var47 + var48 + var49 + var50 + var51 + var52 + var53 + var54 + var55 + var56 + var57 + var58 + var59 + var60 + var61 + var62 + var63 + var64 + var65 + var66 + var67 + var68 + var69 + var70 + var71 + var72 + var73 + var74 + var75 + var76 + var77 + var78 + var79 + var80 + var81 + var82 + var83 + var84 + var85 + var86 + var87 + var88 + var89 + var90 + var91 + var92 + var93 + var94 + var95 + var96 + var97 + var98 + var99) * 0.01;
}
