double score(double * input) {
    double var0;
    if (input[1] <= 0.14300666004419327) {
        if (input[7] <= -1.7153340578079224) {
            var0 = 1.0;
        } else {
            if (input[0] <= -0.09250593557953835) {
                if (input[4] <= 0.33592431992292404) {
                    var0 = 4.0;
                } else {
                    var0 = 1.0;
                }
            } else {
                var0 = 4.0;
            }
        }
    } else {
        if (input[0] <= -0.09250593557953835) {
            if (input[1] <= 0.4230106770992279) {
                var0 = 1.0;
            } else {
                var0 = 0.0;
            }
        } else {
            if (input[1] <= 0.60263592004776) {
                var0 = 4.0;
            } else {
                var0 = 3.0;
            }
        }
    }
    double var1;
    if (input[1] <= 0.14300666004419327) {
        if (input[0] <= -0.7168263494968414) {
            var1 = 1.0;
        } else {
            if (input[0] <= -0.09250593557953835) {
                if (input[8] <= -0.5646161288022995) {
                    var1 = 1.0;
                } else {
                    var1 = 4.0;
                }
            } else {
                var1 = 4.0;
            }
        }
    } else {
        if (input[0] <= -0.09250593557953835) {
            if (input[1] <= 0.42829377949237823) {
                var1 = 1.0;
            } else {
                var1 = 0.0;
            }
        } else {
            if (input[3] <= -0.15333734452724457) {
                var1 = 4.0;
            } else {
                var1 = 3.0;
            }
        }
    }
    double var2;
    if (input[1] <= 0.14300666004419327) {
        if (input[0] <= -0.7168263494968414) {
            var2 = 1.0;
        } else {
            if (input[0] <= -0.07414356805384159) {
                if (input[3] <= -0.427666075527668) {
                    var2 = 1.0;
                } else {
                    var2 = 4.0;
                }
            } else {
                var2 = 4.0;
            }
        }
    } else {
        if (input[0] <= -0.09250593557953835) {
            if (input[1] <= 0.41772760450839996) {
                var2 = 1.0;
            } else {
                var2 = 0.0;
            }
        } else {
            if (input[4] <= -0.06846976280212402) {
                var2 = 3.0;
            } else {
                var2 = 4.0;
            }
        }
    }
    double var3;
    if (input[1] <= 0.07960952073335648) {
        if (input[0] <= -0.09250593557953835) {
            if (input[7] <= 0.1953008472919464) {
                var3 = 1.0;
            } else {
                var3 = 4.0;
            }
        } else {
            var3 = 4.0;
        }
    } else {
        if (input[0] <= -0.09250593557953835) {
            if (input[1] <= 0.41244450211524963) {
                var3 = 1.0;
            } else {
                var3 = 0.0;
            }
        } else {
            if (input[7] <= -0.4401255398988724) {
                var3 = 3.0;
            } else {
                var3 = 4.0;
            }
        }
    }
    double var4;
    if (input[1] <= 0.148289754986763) {
        if (input[0] <= -0.7168263494968414) {
            var4 = 1.0;
        } else {
            if (input[0] <= -0.09250593557953835) {
                if (input[1] <= -1.008708007633686) {
                    var4 = 4.0;
                } else {
                    var4 = 1.0;
                }
            } else {
                var4 = 4.0;
            }
        }
    } else {
        if (input[0] <= -0.09250593557953835) {
            if (input[1] <= 0.42829377949237823) {
                var4 = 1.0;
            } else {
                var4 = 0.0;
            }
        } else {
            if (input[4] <= -0.06846976280212402) {
                var4 = 3.0;
            } else {
                var4 = 4.0;
            }
        }
    }
    double var5;
    if (input[1] <= 0.148289754986763) {
        if (input[7] <= -1.7153340578079224) {
            var5 = 1.0;
        } else {
            if (input[0] <= -0.09250593557953835) {
                if (input[1] <= -1.0139911025762558) {
                    var5 = 4.0;
                } else {
                    var5 = 1.0;
                }
            } else {
                var5 = 4.0;
            }
        }
    } else {
        if (input[0] <= -0.09250593557953835) {
            if (input[1] <= 0.41772760450839996) {
                var5 = 1.0;
            } else {
                var5 = 0.0;
            }
        } else {
            if (input[3] <= -0.15333734452724457) {
                var5 = 4.0;
            } else {
                var5 = 3.0;
            }
        }
    }
    double var6;
    if (input[1] <= 0.14300666004419327) {
        if (input[8] <= 0.2989760898053646) {
            if (input[0] <= -0.09250593557953835) {
                if (input[0] <= -0.16595540195703506) {
                    var6 = 4.0;
                } else {
                    var6 = 1.0;
                }
            } else {
                var6 = 4.0;
            }
        } else {
            var6 = 1.0;
        }
    } else {
        if (input[0] <= -0.09250593557953835) {
            if (input[1] <= 0.4230106770992279) {
                var6 = 1.0;
            } else {
                var6 = 0.0;
            }
        } else {
            if (input[0] <= 0.0543929859995842) {
                var6 = 3.0;
            } else {
                var6 = 4.0;
            }
        }
    }
    double var7;
    if (input[1] <= 0.14300666004419327) {
        if (input[7] <= -1.7153340578079224) {
            var7 = 1.0;
        } else {
            if (input[0] <= -0.09250593557953835) {
                if (input[8] <= -0.5646161288022995) {
                    var7 = 1.0;
                } else {
                    var7 = 4.0;
                }
            } else {
                var7 = 4.0;
            }
        }
    } else {
        if (input[0] <= -0.09250593557953835) {
            if (input[1] <= 0.42829377949237823) {
                var7 = 1.0;
            } else {
                var7 = 0.0;
            }
        } else {
            if (input[1] <= 0.60263592004776) {
                var7 = 4.0;
            } else {
                var7 = 3.0;
            }
        }
    }
    double var8;
    if (input[1] <= 0.12715737521648407) {
        if (input[0] <= -0.7351887226104736) {
            var8 = 1.0;
        } else {
            if (input[0] <= -0.09250593557953835) {
                if (input[4] <= 0.33592431992292404) {
                    var8 = 4.0;
                } else {
                    var8 = 1.0;
                }
            } else {
                var8 = 4.0;
            }
        }
    } else {
        if (input[0] <= -0.09250593557953835) {
            if (input[1] <= 0.41772760450839996) {
                var8 = 1.0;
            } else {
                var8 = 0.0;
            }
        } else {
            if (input[3] <= -0.15333734452724457) {
                var8 = 4.0;
            } else {
                var8 = 3.0;
            }
        }
    }
    double var9;
    if (input[1] <= 0.14300666004419327) {
        if (input[0] <= -0.7168263494968414) {
            var9 = 1.0;
        } else {
            if (input[0] <= -0.09250593557953835) {
                if (input[0] <= -0.16595540195703506) {
                    var9 = 4.0;
                } else {
                    var9 = 1.0;
                }
            } else {
                var9 = 4.0;
            }
        }
    } else {
        if (input[0] <= -0.09250593557953835) {
            if (input[1] <= 0.4071614146232605) {
                var9 = 1.0;
            } else {
                var9 = 0.0;
            }
        } else {
            if (input[3] <= -0.15333734452724457) {
                var9 = 4.0;
            } else {
                var9 = 3.0;
            }
        }
    }
    double var10;
    if (input[1] <= 0.14300666004419327) {
        if (input[7] <= -1.7153340578079224) {
            var10 = 1.0;
        } else {
            if (input[0] <= -0.09250593557953835) {
                if (input[4] <= 0.33592431992292404) {
                    var10 = 4.0;
                } else {
                    var10 = 1.0;
                }
            } else {
                var10 = 4.0;
            }
        }
    } else {
        if (input[0] <= -0.09250593557953835) {
            if (input[1] <= 0.41772760450839996) {
                var10 = 1.0;
            } else {
                var10 = 0.0;
            }
        } else {
            var10 = 3.0;
        }
    }
    double var11;
    if (input[1] <= 0.14300666004419327) {
        if (input[0] <= -0.7168263494968414) {
            var11 = 1.0;
        } else {
            if (input[0] <= -0.09250593557953835) {
                if (input[0] <= -0.16595540195703506) {
                    var11 = 4.0;
                } else {
                    var11 = 1.0;
                }
            } else {
                var11 = 4.0;
            }
        }
    } else {
        if (input[0] <= -0.09250593557953835) {
            if (input[1] <= 0.44414305686950684) {
                var11 = 1.0;
            } else {
                var11 = 0.0;
            }
        } else {
            if (input[4] <= -0.06846976280212402) {
                var11 = 3.0;
            } else {
                var11 = 4.0;
            }
        }
    }
    double var12;
    if (input[1] <= 0.07960952073335648) {
        if (input[0] <= -0.09250593557953835) {
            if (input[7] <= 0.1953008472919464) {
                var12 = 1.0;
            } else {
                var12 = 4.0;
            }
        } else {
            var12 = 4.0;
        }
    } else {
        if (input[0] <= -0.09250593557953835) {
            if (input[1] <= 0.4547092765569687) {
                var12 = 1.0;
            } else {
                var12 = 0.0;
            }
        } else {
            if (input[0] <= 0.0543929859995842) {
                var12 = 3.0;
            } else {
                var12 = 4.0;
            }
        }
    }
    double var13;
    if (input[1] <= 0.14300666004419327) {
        if (input[8] <= 0.2989760898053646) {
            if (input[0] <= -0.09250593557953835) {
                if (input[0] <= -0.16595540195703506) {
                    var13 = 4.0;
                } else {
                    var13 = 1.0;
                }
            } else {
                var13 = 4.0;
            }
        } else {
            var13 = 1.0;
        }
    } else {
        if (input[0] <= -0.09250593557953835) {
            if (input[1] <= 0.42829377949237823) {
                var13 = 1.0;
            } else {
                var13 = 0.0;
            }
        } else {
            if (input[8] <= -0.43672799319028854) {
                var13 = 4.0;
            } else {
                var13 = 3.0;
            }
        }
    }
    double var14;
    if (input[1] <= 0.07960952073335648) {
        if (input[0] <= -0.09250593557953835) {
            if (input[1] <= -1.0139911025762558) {
                var14 = 4.0;
            } else {
                var14 = 1.0;
            }
        } else {
            var14 = 4.0;
        }
    } else {
        if (input[0] <= -0.09250593557953835) {
            if (input[1] <= 0.41772760450839996) {
                var14 = 1.0;
            } else {
                var14 = 0.0;
            }
        } else {
            if (input[4] <= -0.06846976280212402) {
                var14 = 3.0;
            } else {
                var14 = 4.0;
            }
        }
    }
    double var15;
    if (input[1] <= 0.07960952073335648) {
        if (input[0] <= -0.09250593557953835) {
            if (input[7] <= 0.1953008472919464) {
                var15 = 1.0;
            } else {
                var15 = 4.0;
            }
        } else {
            var15 = 4.0;
        }
    } else {
        if (input[0] <= -0.09250593557953835) {
            if (input[1] <= 0.42829377949237823) {
                var15 = 1.0;
            } else {
                var15 = 0.0;
            }
        } else {
            if (input[0] <= 0.07275535352528095) {
                var15 = 3.0;
            } else {
                var15 = 4.0;
            }
        }
    }
    double var16;
    if (input[1] <= 0.07960952073335648) {
        if (input[0] <= -0.09250593557953835) {
            if (input[1] <= -1.0139911025762558) {
                var16 = 4.0;
            } else {
                var16 = 1.0;
            }
        } else {
            var16 = 4.0;
        }
    } else {
        if (input[0] <= -0.09250593557953835) {
            if (input[1] <= 0.41244450211524963) {
                var16 = 1.0;
            } else {
                var16 = 0.0;
            }
        } else {
            if (input[0] <= 0.0543929859995842) {
                var16 = 3.0;
            } else {
                var16 = 4.0;
            }
        }
    }
    double var17;
    if (input[1] <= 0.1324404701590538) {
        if (input[7] <= -1.7153340578079224) {
            var17 = 1.0;
        } else {
            if (input[0] <= -0.09250593557953835) {
                if (input[1] <= -1.008708007633686) {
                    var17 = 4.0;
                } else {
                    var17 = 1.0;
                }
            } else {
                var17 = 4.0;
            }
        }
    } else {
        if (input[0] <= -0.09250593557953835) {
            if (input[1] <= 0.41772760450839996) {
                var17 = 1.0;
            } else {
                var17 = 0.0;
            }
        } else {
            if (input[1] <= 0.6079190075397491) {
                var17 = 4.0;
            } else {
                var17 = 3.0;
            }
        }
    }
    double var18;
    if (input[1] <= 0.06904333084821701) {
        if (input[0] <= -0.09250593557953835) {
            if (input[7] <= 0.1953008472919464) {
                var18 = 1.0;
            } else {
                var18 = 4.0;
            }
        } else {
            var18 = 4.0;
        }
    } else {
        if (input[0] <= -0.09250593557953835) {
            if (input[1] <= 0.41772760450839996) {
                var18 = 1.0;
            } else {
                var18 = 0.0;
            }
        } else {
            if (input[0] <= 0.07275535352528095) {
                var18 = 3.0;
            } else {
                var18 = 4.0;
            }
        }
    }
    double var19;
    if (input[1] <= 0.07960952073335648) {
        if (input[0] <= -0.09250593557953835) {
            if (input[7] <= 0.1953008472919464) {
                var19 = 1.0;
            } else {
                var19 = 4.0;
            }
        } else {
            var19 = 4.0;
        }
    } else {
        if (input[0] <= -0.09250593557953835) {
            if (input[1] <= 0.44414305686950684) {
                var19 = 1.0;
            } else {
                var19 = 0.0;
            }
        } else {
            if (input[3] <= -0.15333734452724457) {
                var19 = 4.0;
            } else {
                var19 = 3.0;
            }
        }
    }
    double var20;
    if (input[1] <= 0.14300666004419327) {
        if (input[0] <= -0.09250593557953835) {
            if (input[1] <= -1.008708007633686) {
                var20 = 4.0;
            } else {
                var20 = 1.0;
            }
        } else {
            var20 = 4.0;
        }
    } else {
        if (input[1] <= 0.41772760450839996) {
            if (input[7] <= -0.6786577254533768) {
                var20 = 1.0;
            } else {
                var20 = 4.0;
            }
        } else {
            if (input[0] <= -0.07414356805384159) {
                var20 = 0.0;
            } else {
                var20 = 3.0;
            }
        }
    }
    double var21;
    if (input[1] <= 0.06376023776829243) {
        if (input[0] <= -0.09250593557953835) {
            if (input[7] <= 0.1953008472919464) {
                var21 = 1.0;
            } else {
                var21 = 4.0;
            }
        } else {
            var21 = 4.0;
        }
    } else {
        if (input[0] <= -0.09250593557953835) {
            if (input[1] <= 0.41772760450839996) {
                var21 = 1.0;
            } else {
                var21 = 0.0;
            }
        } else {
            if (input[8] <= -0.43672799319028854) {
                var21 = 4.0;
            } else {
                var21 = 3.0;
            }
        }
    }
    double var22;
    if (input[1] <= 0.14300666004419327) {
        if (input[0] <= -0.7168263494968414) {
            var22 = 1.0;
        } else {
            if (input[0] <= -0.09250593557953835) {
                if (input[0] <= -0.16595540195703506) {
                    var22 = 4.0;
                } else {
                    var22 = 1.0;
                }
            } else {
                var22 = 4.0;
            }
        }
    } else {
        if (input[0] <= -0.09250593557953835) {
            if (input[1] <= 0.41244450211524963) {
                var22 = 1.0;
            } else {
                var22 = 0.0;
            }
        } else {
            if (input[0] <= 0.0543929859995842) {
                var22 = 3.0;
            } else {
                var22 = 4.0;
            }
        }
    }
    double var23;
    if (input[1] <= 0.09017571061849594) {
        if (input[8] <= 0.2989760898053646) {
            if (input[0] <= -0.09250593557953835) {
                if (input[3] <= -0.427666075527668) {
                    var23 = 1.0;
                } else {
                    var23 = 4.0;
                }
            } else {
                var23 = 4.0;
            }
        } else {
            var23 = 1.0;
        }
    } else {
        if (input[0] <= -0.09250593557953835) {
            if (input[1] <= 0.42829377949237823) {
                var23 = 1.0;
            } else {
                var23 = 0.0;
            }
        } else {
            if (input[8] <= -0.43672799319028854) {
                var23 = 4.0;
            } else {
                var23 = 3.0;
            }
        }
    }
    double var24;
    if (input[1] <= 0.09017571061849594) {
        if (input[7] <= -1.7153340578079224) {
            var24 = 1.0;
        } else {
            if (input[0] <= -0.09250593557953835) {
                if (input[1] <= -1.0192742198705673) {
                    var24 = 4.0;
                } else {
                    var24 = 1.0;
                }
            } else {
                var24 = 4.0;
            }
        }
    } else {
        if (input[0] <= -0.09250593557953835) {
            if (input[1] <= 0.41772760450839996) {
                var24 = 1.0;
            } else {
                var24 = 0.0;
            }
        } else {
            if (input[3] <= -0.15333734452724457) {
                var24 = 4.0;
            } else {
                var24 = 3.0;
            }
        }
    }
    double var25;
    if (input[1] <= 0.09017571061849594) {
        if (input[8] <= 0.2989760898053646) {
            if (input[0] <= -0.09250593557953835) {
                if (input[3] <= -0.427666075527668) {
                    var25 = 1.0;
                } else {
                    var25 = 4.0;
                }
            } else {
                var25 = 4.0;
            }
        } else {
            var25 = 1.0;
        }
    } else {
        if (input[0] <= -0.09250593557953835) {
            if (input[1] <= 0.42829377949237823) {
                var25 = 1.0;
            } else {
                var25 = 0.0;
            }
        } else {
            if (input[4] <= -0.06846976280212402) {
                var25 = 3.0;
            } else {
                var25 = 4.0;
            }
        }
    }
    double var26;
    if (input[1] <= 0.07960952073335648) {
        if (input[0] <= -0.09250593557953835) {
            if (input[7] <= 0.1953008472919464) {
                var26 = 1.0;
            } else {
                var26 = 4.0;
            }
        } else {
            var26 = 4.0;
        }
    } else {
        if (input[0] <= -0.09250593557953835) {
            if (input[1] <= 0.41244450211524963) {
                var26 = 1.0;
            } else {
                var26 = 0.0;
            }
        } else {
            if (input[0] <= 0.0543929859995842) {
                var26 = 3.0;
            } else {
                var26 = 4.0;
            }
        }
    }
    double var27;
    if (input[1] <= 0.12187428027391434) {
        if (input[7] <= -1.7153340578079224) {
            var27 = 1.0;
        } else {
            if (input[0] <= -0.09250593557953835) {
                if (input[1] <= -1.0139911025762558) {
                    var27 = 4.0;
                } else {
                    var27 = 1.0;
                }
            } else {
                var27 = 4.0;
            }
        }
    } else {
        if (input[0] <= -0.09250593557953835) {
            if (input[1] <= 0.42829377949237823) {
                var27 = 1.0;
            } else {
                var27 = 0.0;
            }
        } else {
            if (input[3] <= -0.15333734452724457) {
                var27 = 4.0;
            } else {
                var27 = 3.0;
            }
        }
    }
    double var28;
    if (input[1] <= 0.14300666004419327) {
        if (input[7] <= -1.7153340578079224) {
            var28 = 1.0;
        } else {
            if (input[0] <= -0.09250593557953835) {
                if (input[1] <= -1.0139911025762558) {
                    var28 = 4.0;
                } else {
                    var28 = 1.0;
                }
            } else {
                var28 = 4.0;
            }
        }
    } else {
        if (input[0] <= -0.09250593557953835) {
            if (input[1] <= 0.42829377949237823) {
                var28 = 1.0;
            } else {
                var28 = 0.0;
            }
        } else {
            if (input[8] <= -0.43672799319028854) {
                var28 = 4.0;
            } else {
                var28 = 3.0;
            }
        }
    }
    double var29;
    if (input[1] <= 0.14300666004419327) {
        if (input[8] <= 0.2989760898053646) {
            if (input[0] <= -0.09250593557953835) {
                if (input[8] <= -0.5646161288022995) {
                    var29 = 1.0;
                } else {
                    var29 = 4.0;
                }
            } else {
                var29 = 4.0;
            }
        } else {
            var29 = 1.0;
        }
    } else {
        if (input[0] <= -0.09250593557953835) {
            if (input[1] <= 0.41772760450839996) {
                var29 = 1.0;
            } else {
                var29 = 0.0;
            }
        } else {
            if (input[4] <= -0.06846976280212402) {
                var29 = 3.0;
            } else {
                var29 = 4.0;
            }
        }
    }
    double var30;
    if (input[1] <= 0.09017571061849594) {
        if (input[8] <= 0.2989760898053646) {
            if (input[0] <= -0.09250593557953835) {
                if (input[0] <= -0.16595540195703506) {
                    var30 = 4.0;
                } else {
                    var30 = 1.0;
                }
            } else {
                var30 = 4.0;
            }
        } else {
            var30 = 1.0;
        }
    } else {
        if (input[0] <= -0.09250593557953835) {
            if (input[1] <= 0.42829377949237823) {
                var30 = 1.0;
            } else {
                var30 = 0.0;
            }
        } else {
            if (input[3] <= -0.15333734452724457) {
                var30 = 4.0;
            } else {
                var30 = 3.0;
            }
        }
    }
    double var31;
    if (input[1] <= 0.15357284992933273) {
        if (input[8] <= 0.2989760898053646) {
            if (input[0] <= -0.09250593557953835) {
                if (input[4] <= 0.33592431992292404) {
                    var31 = 4.0;
                } else {
                    var31 = 1.0;
                }
            } else {
                var31 = 4.0;
            }
        } else {
            var31 = 1.0;
        }
    } else {
        if (input[0] <= -0.09250593557953835) {
            if (input[1] <= 0.41772760450839996) {
                var31 = 1.0;
            } else {
                var31 = 0.0;
            }
        } else {
            if (input[3] <= -0.15333734452724457) {
                var31 = 4.0;
            } else {
                var31 = 3.0;
            }
        }
    }
    double var32;
    if (input[1] <= 0.08489261567592621) {
        if (input[0] <= -0.09250593557953835) {
            if (input[1] <= -1.0139911025762558) {
                var32 = 4.0;
            } else {
                var32 = 1.0;
            }
        } else {
            var32 = 4.0;
        }
    } else {
        if (input[0] <= -0.09250593557953835) {
            if (input[1] <= 0.44942615926265717) {
                var32 = 1.0;
            } else {
                var32 = 0.0;
            }
        } else {
            if (input[4] <= -0.06846976280212402) {
                var32 = 3.0;
            } else {
                var32 = 4.0;
            }
        }
    }
    double var33;
    if (input[0] <= -0.09250593557953835) {
        if (input[1] <= -1.0139911025762558) {
            var33 = 4.0;
        } else {
            if (input[1] <= 0.4547092765569687) {
                var33 = 1.0;
            } else {
                var33 = 0.0;
            }
        }
    } else {
        if (input[1] <= 0.46527546644210815) {
            var33 = 4.0;
        } else {
            var33 = 3.0;
        }
    }
    double var34;
    if (input[1] <= 0.21696998924016953) {
        if (input[0] <= -0.6617392599582672) {
            var34 = 1.0;
        } else {
            if (input[0] <= -0.09250593557953835) {
                if (input[1] <= -1.008708007633686) {
                    var34 = 4.0;
                } else {
                    var34 = 1.0;
                }
            } else {
                var34 = 4.0;
            }
        }
    } else {
        if (input[0] <= -0.09250593557953835) {
            if (input[1] <= 0.41772760450839996) {
                var34 = 1.0;
            } else {
                var34 = 0.0;
            }
        } else {
            if (input[0] <= 0.0543929859995842) {
                var34 = 3.0;
            } else {
                var34 = 4.0;
            }
        }
    }
    double var35;
    if (input[1] <= 0.148289754986763) {
        if (input[0] <= -0.7168263494968414) {
            var35 = 1.0;
        } else {
            if (input[0] <= -0.09250593557953835) {
                if (input[3] <= -0.427666075527668) {
                    var35 = 1.0;
                } else {
                    var35 = 4.0;
                }
            } else {
                var35 = 4.0;
            }
        }
    } else {
        if (input[0] <= -0.09250593557953835) {
            if (input[1] <= 0.41244450211524963) {
                var35 = 1.0;
            } else {
                var35 = 0.0;
            }
        } else {
            if (input[8] <= -0.43672799319028854) {
                var35 = 4.0;
            } else {
                var35 = 3.0;
            }
        }
    }
    double var36;
    if (input[1] <= 0.14300666004419327) {
        if (input[0] <= -0.7168263494968414) {
            var36 = 1.0;
        } else {
            if (input[0] <= -0.09250593557953835) {
                if (input[1] <= -1.0139911025762558) {
                    var36 = 4.0;
                } else {
                    var36 = 1.0;
                }
            } else {
                var36 = 4.0;
            }
        }
    } else {
        if (input[0] <= -0.09250593557953835) {
            if (input[1] <= 0.42829377949237823) {
                var36 = 1.0;
            } else {
                var36 = 0.0;
            }
        } else {
            var36 = 3.0;
        }
    }
    double var37;
    if (input[1] <= 0.07960952073335648) {
        if (input[0] <= -0.09250593557953835) {
            if (input[1] <= -1.0139911025762558) {
                var37 = 4.0;
            } else {
                var37 = 1.0;
            }
        } else {
            var37 = 4.0;
        }
    } else {
        if (input[0] <= -0.09250593557953835) {
            if (input[1] <= 0.41772760450839996) {
                var37 = 1.0;
            } else {
                var37 = 0.0;
            }
        } else {
            if (input[4] <= -0.06846976280212402) {
                var37 = 3.0;
            } else {
                var37 = 4.0;
            }
        }
    }
    double var38;
    if (input[1] <= 0.14300666004419327) {
        if (input[0] <= -0.7168263494968414) {
            var38 = 1.0;
        } else {
            if (input[0] <= -0.09250593557953835) {
                if (input[4] <= 0.33592431992292404) {
                    var38 = 4.0;
                } else {
                    var38 = 1.0;
                }
            } else {
                var38 = 4.0;
            }
        }
    } else {
        if (input[0] <= -0.09250593557953835) {
            if (input[1] <= 0.41772760450839996) {
                var38 = 1.0;
            } else {
                var38 = 0.0;
            }
        } else {
            if (input[4] <= -0.06846976280212402) {
                var38 = 3.0;
            } else {
                var38 = 4.0;
            }
        }
    }
    double var39;
    if (input[1] <= 0.07960952073335648) {
        if (input[0] <= -0.09250593557953835) {
            if (input[1] <= -1.0192742198705673) {
                var39 = 4.0;
            } else {
                var39 = 1.0;
            }
        } else {
            var39 = 4.0;
        }
    } else {
        if (input[0] <= -0.09250593557953835) {
            if (input[1] <= 0.41772760450839996) {
                var39 = 1.0;
            } else {
                var39 = 0.0;
            }
        } else {
            if (input[8] <= -0.43672799319028854) {
                var39 = 4.0;
            } else {
                var39 = 3.0;
            }
        }
    }
    double var40;
    if (input[1] <= 0.14300666004419327) {
        if (input[7] <= -1.7153340578079224) {
            var40 = 1.0;
        } else {
            if (input[0] <= -0.09250593557953835) {
                if (input[0] <= -0.16595540195703506) {
                    var40 = 4.0;
                } else {
                    var40 = 1.0;
                }
            } else {
                var40 = 4.0;
            }
        }
    } else {
        if (input[0] <= -0.09250593557953835) {
            if (input[1] <= 0.41772760450839996) {
                var40 = 1.0;
            } else {
                var40 = 0.0;
            }
        } else {
            if (input[7] <= -0.4401255398988724) {
                var40 = 3.0;
            } else {
                var40 = 4.0;
            }
        }
    }
    double var41;
    if (input[1] <= 0.07960952073335648) {
        if (input[0] <= -0.09250593557953835) {
            if (input[7] <= 0.1953008472919464) {
                var41 = 1.0;
            } else {
                var41 = 4.0;
            }
        } else {
            var41 = 4.0;
        }
    } else {
        if (input[0] <= -0.09250593557953835) {
            if (input[1] <= 0.41772760450839996) {
                var41 = 1.0;
            } else {
                var41 = 0.0;
            }
        } else {
            if (input[3] <= -0.15333734452724457) {
                var41 = 4.0;
            } else {
                var41 = 3.0;
            }
        }
    }
    double var42;
    if (input[1] <= 0.14300666004419327) {
        if (input[0] <= -0.7168263494968414) {
            var42 = 1.0;
        } else {
            if (input[0] <= -0.09250593557953835) {
                if (input[1] <= -1.0192742198705673) {
                    var42 = 4.0;
                } else {
                    var42 = 1.0;
                }
            } else {
                var42 = 4.0;
            }
        }
    } else {
        if (input[0] <= -0.09250593557953835) {
            if (input[1] <= 0.42829377949237823) {
                var42 = 1.0;
            } else {
                var42 = 0.0;
            }
        } else {
            if (input[8] <= -0.43672799319028854) {
                var42 = 4.0;
            } else {
                var42 = 3.0;
            }
        }
    }
    double var43;
    if (input[1] <= 0.14300666004419327) {
        if (input[0] <= -0.7351887226104736) {
            var43 = 1.0;
        } else {
            if (input[0] <= -0.09250593557953835) {
                if (input[8] <= -0.5646161288022995) {
                    var43 = 1.0;
                } else {
                    var43 = 4.0;
                }
            } else {
                var43 = 4.0;
            }
        }
    } else {
        if (input[0] <= -0.09250593557953835) {
            if (input[1] <= 0.44942615926265717) {
                var43 = 1.0;
            } else {
                var43 = 0.0;
            }
        } else {
            if (input[0] <= 0.07275535352528095) {
                var43 = 3.0;
            } else {
                var43 = 4.0;
            }
        }
    }
    double var44;
    if (input[1] <= 0.14300666004419327) {
        if (input[8] <= 0.2989760898053646) {
            if (input[0] <= -0.09250593557953835) {
                if (input[8] <= -0.5646161288022995) {
                    var44 = 1.0;
                } else {
                    var44 = 4.0;
                }
            } else {
                var44 = 4.0;
            }
        } else {
            var44 = 1.0;
        }
    } else {
        if (input[0] <= -0.09250593557953835) {
            if (input[1] <= 0.41772760450839996) {
                var44 = 1.0;
            } else {
                var44 = 0.0;
            }
        } else {
            if (input[8] <= -0.43672799319028854) {
                var44 = 4.0;
            } else {
                var44 = 3.0;
            }
        }
    }
    double var45;
    if (input[1] <= 0.148289754986763) {
        if (input[7] <= -1.7153340578079224) {
            var45 = 1.0;
        } else {
            if (input[0] <= -0.09250593557953835) {
                if (input[1] <= -1.0139911025762558) {
                    var45 = 4.0;
                } else {
                    var45 = 1.0;
                }
            } else {
                var45 = 4.0;
            }
        }
    } else {
        if (input[0] <= -0.09250593557953835) {
            if (input[1] <= 0.4599923640489578) {
                var45 = 1.0;
            } else {
                var45 = 0.0;
            }
        } else {
            if (input[1] <= 0.38074593991041183) {
                var45 = 4.0;
            } else {
                var45 = 3.0;
            }
        }
    }
    double var46;
    if (input[1] <= 0.148289754986763) {
        if (input[8] <= 0.2989760898053646) {
            if (input[0] <= -0.09250593557953835) {
                if (input[7] <= 0.1953008472919464) {
                    var46 = 1.0;
                } else {
                    var46 = 4.0;
                }
            } else {
                var46 = 4.0;
            }
        } else {
            var46 = 1.0;
        }
    } else {
        if (input[0] <= -0.09250593557953835) {
            if (input[1] <= 0.42829377949237823) {
                var46 = 1.0;
            } else {
                var46 = 0.0;
            }
        } else {
            if (input[4] <= -0.06846976280212402) {
                var46 = 3.0;
            } else {
                var46 = 4.0;
            }
        }
    }
    double var47;
    if (input[1] <= 0.14300666004419327) {
        if (input[7] <= -1.7153340578079224) {
            var47 = 1.0;
        } else {
            if (input[0] <= -0.09250593557953835) {
                if (input[8] <= -0.5646161288022995) {
                    var47 = 1.0;
                } else {
                    var47 = 4.0;
                }
            } else {
                var47 = 4.0;
            }
        }
    } else {
        if (input[0] <= -0.09250593557953835) {
            if (input[1] <= 0.41772760450839996) {
                var47 = 1.0;
            } else {
                var47 = 0.0;
            }
        } else {
            if (input[8] <= -0.43672799319028854) {
                var47 = 4.0;
            } else {
                var47 = 3.0;
            }
        }
    }
    double var48;
    if (input[1] <= 0.14300666004419327) {
        if (input[8] <= 0.2989760898053646) {
            if (input[0] <= -0.09250593557953835) {
                if (input[8] <= -0.5646161288022995) {
                    var48 = 1.0;
                } else {
                    var48 = 4.0;
                }
            } else {
                var48 = 4.0;
            }
        } else {
            var48 = 1.0;
        }
    } else {
        if (input[0] <= -0.09250593557953835) {
            if (input[1] <= 0.4599923640489578) {
                var48 = 1.0;
            } else {
                var48 = 0.0;
            }
        } else {
            if (input[4] <= -0.06846976280212402) {
                var48 = 3.0;
            } else {
                var48 = 4.0;
            }
        }
    }
    double var49;
    if (input[1] <= 0.14300666004419327) {
        if (input[0] <= -0.7168263494968414) {
            var49 = 1.0;
        } else {
            if (input[0] <= -0.09250593557953835) {
                if (input[8] <= -0.5646161288022995) {
                    var49 = 1.0;
                } else {
                    var49 = 4.0;
                }
            } else {
                var49 = 4.0;
            }
        }
    } else {
        if (input[0] <= -0.09250593557953835) {
            if (input[1] <= 0.42829377949237823) {
                var49 = 1.0;
            } else {
                var49 = 0.0;
            }
        } else {
            if (input[4] <= -0.06846976280212402) {
                var49 = 3.0;
            } else {
                var49 = 4.0;
            }
        }
    }
    double var50;
    if (input[1] <= 0.14300666004419327) {
        if (input[8] <= 0.2989760898053646) {
            if (input[0] <= -0.09250593557953835) {
                if (input[7] <= 0.1953008472919464) {
                    var50 = 1.0;
                } else {
                    var50 = 4.0;
                }
            } else {
                var50 = 4.0;
            }
        } else {
            var50 = 1.0;
        }
    } else {
        if (input[0] <= -0.09250593557953835) {
            if (input[1] <= 0.42829377949237823) {
                var50 = 1.0;
            } else {
                var50 = 0.0;
            }
        } else {
            if (input[4] <= -0.06846976280212402) {
                var50 = 3.0;
            } else {
                var50 = 4.0;
            }
        }
    }
    double var51;
    if (input[1] <= 0.148289754986763) {
        if (input[7] <= -1.7153340578079224) {
            var51 = 1.0;
        } else {
            if (input[0] <= -0.09250593557953835) {
                if (input[7] <= 0.1953008472919464) {
                    var51 = 1.0;
                } else {
                    var51 = 4.0;
                }
            } else {
                var51 = 4.0;
            }
        }
    } else {
        if (input[0] <= -0.09250593557953835) {
            if (input[1] <= 0.41772760450839996) {
                var51 = 1.0;
            } else {
                var51 = 0.0;
            }
        } else {
            var51 = 3.0;
        }
    }
    double var52;
    if (input[1] <= 0.14300666004419327) {
        if (input[7] <= -1.7153340578079224) {
            var52 = 1.0;
        } else {
            if (input[0] <= -0.09250593557953835) {
                if (input[3] <= -0.427666075527668) {
                    var52 = 1.0;
                } else {
                    var52 = 4.0;
                }
            } else {
                var52 = 4.0;
            }
        }
    } else {
        if (input[0] <= -0.09250593557953835) {
            if (input[1] <= 0.41244450211524963) {
                var52 = 1.0;
            } else {
                var52 = 0.0;
            }
        } else {
            if (input[0] <= 0.07275535352528095) {
                var52 = 3.0;
            } else {
                var52 = 4.0;
            }
        }
    }
    double var53;
    if (input[1] <= 0.07960952073335648) {
        if (input[0] <= -0.7535510659217834) {
            var53 = 1.0;
        } else {
            if (input[0] <= -0.09250593557953835) {
                if (input[8] <= -0.5646161288022995) {
                    var53 = 1.0;
                } else {
                    var53 = 4.0;
                }
            } else {
                var53 = 4.0;
            }
        }
    } else {
        if (input[0] <= -0.09250593557953835) {
            if (input[1] <= 0.42829377949237823) {
                var53 = 1.0;
            } else {
                var53 = 0.0;
            }
        } else {
            if (input[7] <= -0.4401255398988724) {
                var53 = 3.0;
            } else {
                var53 = 4.0;
            }
        }
    }
    double var54;
    if (input[1] <= 0.148289754986763) {
        if (input[0] <= -0.09250593557953835) {
            if (input[7] <= 0.1953008472919464) {
                var54 = 1.0;
            } else {
                var54 = 4.0;
            }
        } else {
            var54 = 4.0;
        }
    } else {
        if (input[0] <= -0.09250593557953835) {
            if (input[1] <= 0.41772760450839996) {
                var54 = 1.0;
            } else {
                var54 = 0.0;
            }
        } else {
            if (input[0] <= 0.0543929859995842) {
                var54 = 3.0;
            } else {
                var54 = 4.0;
            }
        }
    }
    double var55;
    if (input[1] <= 0.09017571061849594) {
        if (input[0] <= -0.09250593557953835) {
            if (input[1] <= -1.008708007633686) {
                var55 = 4.0;
            } else {
                var55 = 1.0;
            }
        } else {
            var55 = 4.0;
        }
    } else {
        if (input[0] <= -0.09250593557953835) {
            if (input[1] <= 0.4547092765569687) {
                var55 = 1.0;
            } else {
                var55 = 0.0;
            }
        } else {
            if (input[3] <= -0.15333734452724457) {
                var55 = 4.0;
            } else {
                var55 = 3.0;
            }
        }
    }
    double var56;
    if (input[1] <= 0.12187428027391434) {
        if (input[8] <= 0.2989760898053646) {
            if (input[0] <= -0.09250593557953835) {
                if (input[1] <= -1.0139911025762558) {
                    var56 = 4.0;
                } else {
                    var56 = 1.0;
                }
            } else {
                var56 = 4.0;
            }
        } else {
            var56 = 1.0;
        }
    } else {
        if (input[0] <= -0.09250593557953835) {
            if (input[1] <= 0.41772760450839996) {
                var56 = 1.0;
            } else {
                var56 = 0.0;
            }
        } else {
            if (input[4] <= -0.06846976280212402) {
                var56 = 3.0;
            } else {
                var56 = 4.0;
            }
        }
    }
    double var57;
    if (input[1] <= 0.14300666004419327) {
        if (input[8] <= 0.2989760898053646) {
            if (input[0] <= -0.09250593557953835) {
                if (input[8] <= -0.5646161288022995) {
                    var57 = 1.0;
                } else {
                    var57 = 4.0;
                }
            } else {
                var57 = 4.0;
            }
        } else {
            var57 = 1.0;
        }
    } else {
        if (input[0] <= -0.09250593557953835) {
            if (input[1] <= 0.41772760450839996) {
                var57 = 1.0;
            } else {
                var57 = 0.0;
            }
        } else {
            if (input[4] <= -0.06846976280212402) {
                var57 = 3.0;
            } else {
                var57 = 4.0;
            }
        }
    }
    double var58;
    if (input[1] <= 0.07960952073335648) {
        if (input[0] <= -0.09250593557953835) {
            if (input[8] <= -0.5646161288022995) {
                var58 = 1.0;
            } else {
                var58 = 4.0;
            }
        } else {
            var58 = 4.0;
        }
    } else {
        if (input[0] <= -0.09250593557953835) {
            if (input[1] <= 0.42829377949237823) {
                var58 = 1.0;
            } else {
                var58 = 0.0;
            }
        } else {
            if (input[4] <= -0.06846976280212402) {
                var58 = 3.0;
            } else {
                var58 = 4.0;
            }
        }
    }
    double var59;
    if (input[1] <= 0.1324404701590538) {
        if (input[0] <= -0.7168263494968414) {
            var59 = 1.0;
        } else {
            if (input[0] <= -0.09250593557953835) {
                if (input[8] <= -0.5646161288022995) {
                    var59 = 1.0;
                } else {
                    var59 = 4.0;
                }
            } else {
                var59 = 4.0;
            }
        }
    } else {
        if (input[0] <= -0.09250593557953835) {
            if (input[1] <= 0.41772760450839996) {
                var59 = 1.0;
            } else {
                var59 = 0.0;
            }
        } else {
            if (input[1] <= 0.5233895033597946) {
                var59 = 4.0;
            } else {
                var59 = 3.0;
            }
        }
    }
    double var60;
    if (input[1] <= 0.14300666004419327) {
        if (input[7] <= -1.7153340578079224) {
            var60 = 1.0;
        } else {
            if (input[0] <= -0.09250593557953835) {
                if (input[8] <= -0.5646161288022995) {
                    var60 = 1.0;
                } else {
                    var60 = 4.0;
                }
            } else {
                var60 = 4.0;
            }
        }
    } else {
        if (input[0] <= -0.07414356805384159) {
            if (input[1] <= 0.42829377949237823) {
                var60 = 1.0;
            } else {
                var60 = 0.0;
            }
        } else {
            if (input[0] <= 0.07275535352528095) {
                var60 = 3.0;
            } else {
                var60 = 4.0;
            }
        }
    }
    double var61;
    if (input[1] <= 0.1324404701590538) {
        if (input[0] <= -0.7351887226104736) {
            var61 = 1.0;
        } else {
            if (input[0] <= -0.09250593557953835) {
                if (input[8] <= -0.5646161288022995) {
                    var61 = 1.0;
                } else {
                    var61 = 4.0;
                }
            } else {
                var61 = 4.0;
            }
        }
    } else {
        if (input[0] <= -0.09250593557953835) {
            if (input[1] <= 0.42829377949237823) {
                var61 = 1.0;
            } else {
                var61 = 0.0;
            }
        } else {
            if (input[4] <= -0.06846976280212402) {
                var61 = 3.0;
            } else {
                var61 = 4.0;
            }
        }
    }
    double var62;
    if (input[1] <= 0.14300666004419327) {
        if (input[7] <= -1.7153340578079224) {
            var62 = 1.0;
        } else {
            if (input[0] <= -0.09250593557953835) {
                if (input[8] <= -0.5646161288022995) {
                    var62 = 1.0;
                } else {
                    var62 = 4.0;
                }
            } else {
                var62 = 4.0;
            }
        }
    } else {
        if (input[0] <= -0.09250593557953835) {
            if (input[1] <= 0.44942615926265717) {
                var62 = 1.0;
            } else {
                var62 = 0.0;
            }
        } else {
            if (input[3] <= -0.15333734452724457) {
                var62 = 4.0;
            } else {
                var62 = 3.0;
            }
        }
    }
    double var63;
    if (input[1] <= 0.14300666004419327) {
        if (input[7] <= -0.026975736021995544) {
            if (input[0] <= -0.07414356805384159) {
                var63 = 1.0;
            } else {
                var63 = 4.0;
            }
        } else {
            var63 = 4.0;
        }
    } else {
        if (input[0] <= -0.09250593557953835) {
            if (input[1] <= 0.41772760450839996) {
                var63 = 1.0;
            } else {
                var63 = 0.0;
            }
        } else {
            if (input[1] <= 0.46527546644210815) {
                var63 = 4.0;
            } else {
                var63 = 3.0;
            }
        }
    }
    double var64;
    if (input[1] <= 0.21696998924016953) {
        if (input[0] <= -0.6801016330718994) {
            var64 = 1.0;
        } else {
            if (input[0] <= -0.09250593557953835) {
                if (input[0] <= -0.16595540195703506) {
                    var64 = 4.0;
                } else {
                    var64 = 1.0;
                }
            } else {
                var64 = 4.0;
            }
        }
    } else {
        if (input[0] <= -0.09250593557953835) {
            if (input[1] <= 0.42829377949237823) {
                var64 = 1.0;
            } else {
                var64 = 0.0;
            }
        } else {
            if (input[3] <= -0.15333734452724457) {
                var64 = 4.0;
            } else {
                var64 = 3.0;
            }
        }
    }
    double var65;
    if (input[1] <= 0.20640379935503006) {
        if (input[0] <= -0.6617392599582672) {
            var65 = 1.0;
        } else {
            if (input[0] <= -0.09250593557953835) {
                if (input[7] <= 0.1953008472919464) {
                    var65 = 1.0;
                } else {
                    var65 = 4.0;
                }
            } else {
                var65 = 4.0;
            }
        }
    } else {
        if (input[0] <= -0.09250593557953835) {
            if (input[1] <= 0.42829377949237823) {
                var65 = 1.0;
            } else {
                var65 = 0.0;
            }
        } else {
            if (input[4] <= -0.06846976280212402) {
                var65 = 3.0;
            } else {
                var65 = 4.0;
            }
        }
    }
    double var66;
    if (input[1] <= 0.148289754986763) {
        if (input[0] <= -0.09250593557953835) {
            if (input[7] <= 0.1953008472919464) {
                var66 = 1.0;
            } else {
                var66 = 4.0;
            }
        } else {
            var66 = 4.0;
        }
    } else {
        if (input[0] <= -0.09250593557953835) {
            if (input[1] <= 0.42829377949237823) {
                var66 = 1.0;
            } else {
                var66 = 0.0;
            }
        } else {
            if (input[7] <= -0.4401255398988724) {
                var66 = 3.0;
            } else {
                var66 = 4.0;
            }
        }
    }
    double var67;
    if (input[1] <= 0.148289754986763) {
        if (input[8] <= 0.2989760898053646) {
            if (input[0] <= -0.09250593557953835) {
                if (input[8] <= -0.5646161288022995) {
                    var67 = 1.0;
                } else {
                    var67 = 4.0;
                }
            } else {
                var67 = 4.0;
            }
        } else {
            var67 = 1.0;
        }
    } else {
        if (input[0] <= -0.09250593557953835) {
            if (input[1] <= 0.41244450211524963) {
                var67 = 1.0;
            } else {
                var67 = 0.0;
            }
        } else {
            if (input[8] <= -0.43672799319028854) {
                var67 = 4.0;
            } else {
                var67 = 3.0;
            }
        }
    }
    double var68;
    if (input[1] <= 0.14300666004419327) {
        if (input[8] <= 0.2989760898053646) {
            if (input[0] <= -0.09250593557953835) {
                if (input[1] <= -1.0139911025762558) {
                    var68 = 4.0;
                } else {
                    var68 = 1.0;
                }
            } else {
                var68 = 4.0;
            }
        } else {
            var68 = 1.0;
        }
    } else {
        if (input[0] <= -0.09250593557953835) {
            if (input[1] <= 0.41772760450839996) {
                var68 = 1.0;
            } else {
                var68 = 0.0;
            }
        } else {
            if (input[4] <= -0.06846976280212402) {
                var68 = 3.0;
            } else {
                var68 = 4.0;
            }
        }
    }
    double var69;
    if (input[1] <= 0.09017571061849594) {
        if (input[0] <= -0.09250593557953835) {
            if (input[7] <= 0.1953008472919464) {
                var69 = 1.0;
            } else {
                var69 = 4.0;
            }
        } else {
            var69 = 4.0;
        }
    } else {
        if (input[0] <= -0.09250593557953835) {
            if (input[1] <= 0.42829377949237823) {
                var69 = 1.0;
            } else {
                var69 = 0.0;
            }
        } else {
            if (input[7] <= -0.4401255398988724) {
                var69 = 3.0;
            } else {
                var69 = 4.0;
            }
        }
    }
    double var70;
    if (input[1] <= 0.14300666004419327) {
        if (input[0] <= -0.7351887226104736) {
            var70 = 1.0;
        } else {
            if (input[0] <= -0.09250593557953835) {
                if (input[8] <= -0.5646161288022995) {
                    var70 = 1.0;
                } else {
                    var70 = 4.0;
                }
            } else {
                var70 = 4.0;
            }
        }
    } else {
        if (input[0] <= -0.09250593557953835) {
            if (input[1] <= 0.41772760450839996) {
                var70 = 1.0;
            } else {
                var70 = 0.0;
            }
        } else {
            if (input[1] <= 0.38074593991041183) {
                var70 = 4.0;
            } else {
                var70 = 3.0;
            }
        }
    }
    double var71;
    if (input[1] <= 0.14300666004419327) {
        if (input[0] <= -0.7168263494968414) {
            var71 = 1.0;
        } else {
            if (input[0] <= -0.09250593557953835) {
                if (input[4] <= 0.33592431992292404) {
                    var71 = 4.0;
                } else {
                    var71 = 1.0;
                }
            } else {
                var71 = 4.0;
            }
        }
    } else {
        if (input[0] <= -0.09250593557953835) {
            if (input[1] <= 0.41772760450839996) {
                var71 = 1.0;
            } else {
                var71 = 0.0;
            }
        } else {
            if (input[1] <= 0.46527546644210815) {
                var71 = 4.0;
            } else {
                var71 = 3.0;
            }
        }
    }
    double var72;
    if (input[1] <= 0.07960952073335648) {
        if (input[0] <= -0.09250593557953835) {
            if (input[1] <= -1.008708007633686) {
                var72 = 4.0;
            } else {
                var72 = 1.0;
            }
        } else {
            var72 = 4.0;
        }
    } else {
        if (input[0] <= -0.09250593557953835) {
            if (input[1] <= 0.42829377949237823) {
                var72 = 1.0;
            } else {
                var72 = 0.0;
            }
        } else {
            if (input[1] <= 0.48112472891807556) {
                var72 = 4.0;
            } else {
                var72 = 3.0;
            }
        }
    }
    double var73;
    if (input[1] <= 0.14300666004419327) {
        if (input[8] <= 0.2989760898053646) {
            if (input[0] <= -0.09250593557953835) {
                if (input[1] <= -1.0139911025762558) {
                    var73 = 4.0;
                } else {
                    var73 = 1.0;
                }
            } else {
                var73 = 4.0;
            }
        } else {
            var73 = 1.0;
        }
    } else {
        if (input[0] <= -0.09250593557953835) {
            if (input[1] <= 0.42829377949237823) {
                var73 = 1.0;
            } else {
                var73 = 0.0;
            }
        } else {
            if (input[1] <= 0.46527546644210815) {
                var73 = 4.0;
            } else {
                var73 = 3.0;
            }
        }
    }
    double var74;
    if (input[1] <= 0.1324404701590538) {
        if (input[7] <= -1.7153340578079224) {
            var74 = 1.0;
        } else {
            if (input[0] <= -0.09250593557953835) {
                if (input[8] <= -0.5646161288022995) {
                    var74 = 1.0;
                } else {
                    var74 = 4.0;
                }
            } else {
                var74 = 4.0;
            }
        }
    } else {
        if (input[0] <= -0.09250593557953835) {
            if (input[1] <= 0.41244450211524963) {
                var74 = 1.0;
            } else {
                var74 = 0.0;
            }
        } else {
            if (input[4] <= -0.06846976280212402) {
                var74 = 3.0;
            } else {
                var74 = 4.0;
            }
        }
    }
    double var75;
    if (input[1] <= 0.14300666004419327) {
        if (input[7] <= -1.7153340578079224) {
            var75 = 1.0;
        } else {
            if (input[0] <= -0.09250593557953835) {
                if (input[1] <= -1.0139911025762558) {
                    var75 = 4.0;
                } else {
                    var75 = 1.0;
                }
            } else {
                var75 = 4.0;
            }
        }
    } else {
        if (input[0] <= -0.09250593557953835) {
            if (input[1] <= 0.42829377949237823) {
                var75 = 1.0;
            } else {
                var75 = 0.0;
            }
        } else {
            if (input[1] <= 0.3754628449678421) {
                var75 = 4.0;
            } else {
                var75 = 3.0;
            }
        }
    }
    double var76;
    if (input[1] <= 0.07960952073335648) {
        if (input[0] <= -0.09250593557953835) {
            if (input[7] <= 0.1953008472919464) {
                var76 = 1.0;
            } else {
                var76 = 4.0;
            }
        } else {
            var76 = 4.0;
        }
    } else {
        if (input[0] <= -0.09250593557953835) {
            if (input[1] <= 0.41772760450839996) {
                var76 = 1.0;
            } else {
                var76 = 0.0;
            }
        } else {
            if (input[8] <= -0.43672799319028854) {
                var76 = 4.0;
            } else {
                var76 = 3.0;
            }
        }
    }
    double var77;
    if (input[1] <= 0.14300666004419327) {
        if (input[0] <= -0.7168263494968414) {
            var77 = 1.0;
        } else {
            if (input[0] <= -0.09250593557953835) {
                if (input[1] <= -1.008708007633686) {
                    var77 = 4.0;
                } else {
                    var77 = 1.0;
                }
            } else {
                var77 = 4.0;
            }
        }
    } else {
        if (input[0] <= -0.09250593557953835) {
            if (input[1] <= 0.41772760450839996) {
                var77 = 1.0;
            } else {
                var77 = 0.0;
            }
        } else {
            if (input[4] <= -0.06846976280212402) {
                var77 = 3.0;
            } else {
                var77 = 4.0;
            }
        }
    }
    double var78;
    if (input[1] <= 0.12187428027391434) {
        if (input[8] <= 0.2989760898053646) {
            if (input[0] <= -0.09250593557953835) {
                if (input[1] <= -1.0139911025762558) {
                    var78 = 4.0;
                } else {
                    var78 = 1.0;
                }
            } else {
                var78 = 4.0;
            }
        } else {
            var78 = 1.0;
        }
    } else {
        if (input[0] <= -0.09250593557953835) {
            if (input[1] <= 0.42829377949237823) {
                var78 = 1.0;
            } else {
                var78 = 0.0;
            }
        } else {
            if (input[1] <= 0.3754628449678421) {
                var78 = 4.0;
            } else {
                var78 = 3.0;
            }
        }
    }
    double var79;
    if (input[1] <= 0.14300666004419327) {
        if (input[8] <= 0.2989760898053646) {
            if (input[0] <= -0.09250593557953835) {
                if (input[3] <= -0.427666075527668) {
                    var79 = 1.0;
                } else {
                    var79 = 4.0;
                }
            } else {
                var79 = 4.0;
            }
        } else {
            var79 = 1.0;
        }
    } else {
        if (input[0] <= -0.09250593557953835) {
            if (input[1] <= 0.41772760450839996) {
                var79 = 1.0;
            } else {
                var79 = 0.0;
            }
        } else {
            var79 = 3.0;
        }
    }
    double var80;
    if (input[1] <= 0.14300666004419327) {
        if (input[0] <= -0.7168263494968414) {
            var80 = 1.0;
        } else {
            if (input[0] <= -0.09250593557953835) {
                if (input[7] <= 0.1953008472919464) {
                    var80 = 1.0;
                } else {
                    var80 = 4.0;
                }
            } else {
                var80 = 4.0;
            }
        }
    } else {
        if (input[0] <= -0.09250593557953835) {
            if (input[1] <= 0.44942617416381836) {
                var80 = 1.0;
            } else {
                var80 = 0.0;
            }
        } else {
            if (input[0] <= 0.0543929859995842) {
                var80 = 3.0;
            } else {
                var80 = 4.0;
            }
        }
    }
    double var81;
    if (input[1] <= 0.14300666004419327) {
        if (input[8] <= 0.2989760898053646) {
            if (input[0] <= -0.09250593557953835) {
                if (input[1] <= -1.0139911025762558) {
                    var81 = 4.0;
                } else {
                    var81 = 1.0;
                }
            } else {
                var81 = 4.0;
            }
        } else {
            var81 = 1.0;
        }
    } else {
        if (input[0] <= -0.09250593557953835) {
            if (input[1] <= 0.41772760450839996) {
                var81 = 1.0;
            } else {
                var81 = 0.0;
            }
        } else {
            if (input[3] <= -0.15333734452724457) {
                var81 = 4.0;
            } else {
                var81 = 3.0;
            }
        }
    }
    double var82;
    if (input[1] <= 0.07960952073335648) {
        if (input[0] <= -0.7535510659217834) {
            var82 = 1.0;
        } else {
            if (input[0] <= -0.09250593557953835) {
                if (input[7] <= 0.1953008472919464) {
                    var82 = 1.0;
                } else {
                    var82 = 4.0;
                }
            } else {
                var82 = 4.0;
            }
        }
    } else {
        if (input[0] <= -0.09250593557953835) {
            if (input[1] <= 0.42829377949237823) {
                var82 = 1.0;
            } else {
                var82 = 0.0;
            }
        } else {
            if (input[4] <= -0.06846976280212402) {
                var82 = 3.0;
            } else {
                var82 = 4.0;
            }
        }
    }
    double var83;
    if (input[1] <= 0.07960952073335648) {
        if (input[7] <= -1.7153340578079224) {
            var83 = 1.0;
        } else {
            if (input[0] <= -0.09250593557953835) {
                if (input[7] <= 0.1953008472919464) {
                    var83 = 1.0;
                } else {
                    var83 = 4.0;
                }
            } else {
                var83 = 4.0;
            }
        }
    } else {
        if (input[0] <= -0.09250593557953835) {
            if (input[1] <= 0.42829377949237823) {
                var83 = 1.0;
            } else {
                var83 = 0.0;
            }
        } else {
            if (input[8] <= -0.43672799319028854) {
                var83 = 4.0;
            } else {
                var83 = 3.0;
            }
        }
    }
    double var84;
    if (input[1] <= 0.14300666004419327) {
        if (input[0] <= -0.7168263494968414) {
            var84 = 1.0;
        } else {
            if (input[0] <= -0.09250593557953835) {
                if (input[3] <= -0.427666075527668) {
                    var84 = 1.0;
                } else {
                    var84 = 4.0;
                }
            } else {
                var84 = 4.0;
            }
        }
    } else {
        if (input[0] <= -0.09250593557953835) {
            if (input[1] <= 0.42829377949237823) {
                var84 = 1.0;
            } else {
                var84 = 0.0;
            }
        } else {
            if (input[8] <= -0.43672799319028854) {
                var84 = 4.0;
            } else {
                var84 = 3.0;
            }
        }
    }
    double var85;
    if (input[1] <= 0.14300666004419327) {
        if (input[7] <= -1.7153340578079224) {
            var85 = 1.0;
        } else {
            if (input[0] <= -0.09250593557953835) {
                if (input[4] <= 0.33592431992292404) {
                    var85 = 4.0;
                } else {
                    var85 = 1.0;
                }
            } else {
                var85 = 4.0;
            }
        }
    } else {
        if (input[0] <= -0.09250593557953835) {
            if (input[1] <= 0.41772760450839996) {
                var85 = 1.0;
            } else {
                var85 = 0.0;
            }
        } else {
            if (input[1] <= 0.46527546644210815) {
                var85 = 4.0;
            } else {
                var85 = 3.0;
            }
        }
    }
    double var86;
    if (input[1] <= 0.2116868942975998) {
        if (input[0] <= -0.6801016330718994) {
            var86 = 1.0;
        } else {
            if (input[0] <= -0.09250593557953835) {
                if (input[8] <= -0.5646161288022995) {
                    var86 = 1.0;
                } else {
                    var86 = 4.0;
                }
            } else {
                var86 = 4.0;
            }
        }
    } else {
        if (input[0] <= -0.09250593557953835) {
            if (input[1] <= 0.41772760450839996) {
                var86 = 1.0;
            } else {
                var86 = 0.0;
            }
        } else {
            var86 = 3.0;
        }
    }
    double var87;
    if (input[1] <= 0.14300666004419327) {
        if (input[7] <= -1.7153340578079224) {
            var87 = 1.0;
        } else {
            if (input[0] <= -0.09250593557953835) {
                if (input[1] <= -1.0139911025762558) {
                    var87 = 4.0;
                } else {
                    var87 = 1.0;
                }
            } else {
                var87 = 4.0;
            }
        }
    } else {
        if (input[0] <= -0.09250593557953835) {
            if (input[1] <= 0.41772760450839996) {
                var87 = 1.0;
            } else {
                var87 = 0.0;
            }
        } else {
            if (input[1] <= 0.38074593991041183) {
                var87 = 4.0;
            } else {
                var87 = 3.0;
            }
        }
    }
    double var88;
    if (input[1] <= 0.1324404701590538) {
        if (input[7] <= -1.7153340578079224) {
            var88 = 1.0;
        } else {
            if (input[0] <= -0.09250593557953835) {
                if (input[8] <= -0.5646161288022995) {
                    var88 = 1.0;
                } else {
                    var88 = 4.0;
                }
            } else {
                var88 = 4.0;
            }
        }
    } else {
        if (input[0] <= -0.09250593557953835) {
            if (input[1] <= 0.41772760450839996) {
                var88 = 1.0;
            } else {
                var88 = 0.0;
            }
        } else {
            if (input[4] <= -0.06846976280212402) {
                var88 = 3.0;
            } else {
                var88 = 4.0;
            }
        }
    }
    double var89;
    if (input[1] <= 0.06904333084821701) {
        if (input[0] <= -0.09250593557953835) {
            if (input[7] <= 0.1953008472919464) {
                var89 = 1.0;
            } else {
                var89 = 4.0;
            }
        } else {
            var89 = 4.0;
        }
    } else {
        if (input[0] <= -0.09250593557953835) {
            if (input[1] <= 0.41772760450839996) {
                var89 = 1.0;
            } else {
                var89 = 0.0;
            }
        } else {
            if (input[1] <= 0.46527546644210815) {
                var89 = 4.0;
            } else {
                var89 = 3.0;
            }
        }
    }
    double var90;
    if (input[1] <= 0.07960952073335648) {
        if (input[0] <= -0.09250593557953835) {
            if (input[7] <= 0.1953008472919464) {
                var90 = 1.0;
            } else {
                var90 = 4.0;
            }
        } else {
            var90 = 4.0;
        }
    } else {
        if (input[0] <= -0.09250593557953835) {
            if (input[1] <= 0.41772760450839996) {
                var90 = 1.0;
            } else {
                var90 = 0.0;
            }
        } else {
            if (input[4] <= -0.06846976280212402) {
                var90 = 3.0;
            } else {
                var90 = 4.0;
            }
        }
    }
    double var91;
    if (input[1] <= 0.148289754986763) {
        if (input[7] <= -1.7153340578079224) {
            var91 = 1.0;
        } else {
            if (input[0] <= -0.09250593557953835) {
                if (input[1] <= -1.0139911025762558) {
                    var91 = 4.0;
                } else {
                    var91 = 1.0;
                }
            } else {
                var91 = 4.0;
            }
        }
    } else {
        if (input[0] <= -0.09250593557953835) {
            if (input[1] <= 0.41772760450839996) {
                var91 = 1.0;
            } else {
                var91 = 0.0;
            }
        } else {
            if (input[4] <= -0.06846976280212402) {
                var91 = 3.0;
            } else {
                var91 = 4.0;
            }
        }
    }
    double var92;
    if (input[1] <= 0.11130809038877487) {
        if (input[8] <= 0.2989760898053646) {
            if (input[0] <= -0.09250593557953835) {
                if (input[8] <= -0.5646161288022995) {
                    var92 = 1.0;
                } else {
                    var92 = 4.0;
                }
            } else {
                var92 = 4.0;
            }
        } else {
            var92 = 1.0;
        }
    } else {
        if (input[0] <= -0.09250593557953835) {
            if (input[1] <= 0.41772760450839996) {
                var92 = 1.0;
            } else {
                var92 = 0.0;
            }
        } else {
            if (input[7] <= -0.4401255398988724) {
                var92 = 3.0;
            } else {
                var92 = 4.0;
            }
        }
    }
    double var93;
    if (input[1] <= 0.09017571061849594) {
        if (input[0] <= -0.7535510659217834) {
            var93 = 1.0;
        } else {
            if (input[0] <= -0.09250593557953835) {
                if (input[4] <= 0.33592431992292404) {
                    var93 = 4.0;
                } else {
                    var93 = 1.0;
                }
            } else {
                var93 = 4.0;
            }
        }
    } else {
        if (input[0] <= -0.09250593557953835) {
            if (input[1] <= 0.42829377949237823) {
                var93 = 1.0;
            } else {
                var93 = 0.0;
            }
        } else {
            if (input[1] <= 0.46527546644210815) {
                var93 = 4.0;
            } else {
                var93 = 3.0;
            }
        }
    }
    double var94;
    if (input[1] <= 0.07960952073335648) {
        if (input[8] <= 0.2989760898053646) {
            if (input[0] <= -0.09250593557953835) {
                if (input[1] <= -1.0139911025762558) {
                    var94 = 4.0;
                } else {
                    var94 = 1.0;
                }
            } else {
                var94 = 4.0;
            }
        } else {
            var94 = 1.0;
        }
    } else {
        if (input[0] <= -0.09250593557953835) {
            if (input[1] <= 0.4547092765569687) {
                var94 = 1.0;
            } else {
                var94 = 0.0;
            }
        } else {
            if (input[0] <= 0.0543929859995842) {
                var94 = 3.0;
            } else {
                var94 = 4.0;
            }
        }
    }
    double var95;
    if (input[1] <= 0.14300666004419327) {
        if (input[8] <= 0.2989760898053646) {
            if (input[0] <= -0.09250593557953835) {
                if (input[1] <= -1.0139911025762558) {
                    var95 = 4.0;
                } else {
                    var95 = 1.0;
                }
            } else {
                var95 = 4.0;
            }
        } else {
            var95 = 1.0;
        }
    } else {
        if (input[0] <= -0.09250593557953835) {
            if (input[1] <= 0.41772760450839996) {
                var95 = 1.0;
            } else {
                var95 = 0.0;
            }
        } else {
            if (input[0] <= 0.07275535352528095) {
                var95 = 3.0;
            } else {
                var95 = 4.0;
            }
        }
    }
    double var96;
    if (input[1] <= 0.14300666004419327) {
        if (input[7] <= -1.7153340578079224) {
            var96 = 1.0;
        } else {
            if (input[0] <= -0.09250593557953835) {
                if (input[4] <= 0.33592431992292404) {
                    var96 = 4.0;
                } else {
                    var96 = 1.0;
                }
            } else {
                var96 = 4.0;
            }
        }
    } else {
        if (input[0] <= -0.09250593557953835) {
            if (input[1] <= 0.41772760450839996) {
                var96 = 1.0;
            } else {
                var96 = 0.0;
            }
        } else {
            if (input[3] <= -0.15333734452724457) {
                var96 = 4.0;
            } else {
                var96 = 3.0;
            }
        }
    }
    double var97;
    if (input[1] <= 0.07960952073335648) {
        if (input[7] <= -1.7153340578079224) {
            var97 = 1.0;
        } else {
            if (input[0] <= -0.09250593557953835) {
                if (input[1] <= -1.0139911025762558) {
                    var97 = 4.0;
                } else {
                    var97 = 1.0;
                }
            } else {
                var97 = 4.0;
            }
        }
    } else {
        if (input[0] <= -0.09250593557953835) {
            if (input[1] <= 0.41772760450839996) {
                var97 = 1.0;
            } else {
                var97 = 0.0;
            }
        } else {
            if (input[4] <= -0.06846976280212402) {
                var97 = 3.0;
            } else {
                var97 = 4.0;
            }
        }
    }
    double var98;
    if (input[1] <= 0.555088073015213) {
        if (input[0] <= -0.6250145137310028) {
            var98 = 1.0;
        } else {
            if (input[0] <= -0.055781206116080284) {
                if (input[4] <= 0.33592431992292404) {
                    if (input[8] <= 0.9096279889345169) {
                        var98 = 4.0;
                    } else {
                        var98 = 3.0;
                    }
                } else {
                    if (input[1] <= -0.13171427696943283) {
                        var98 = 1.0;
                    } else {
                        var98 = 4.0;
                    }
                }
            } else {
                var98 = 4.0;
            }
        }
    } else {
        if (input[0] <= -0.09250593557953835) {
            var98 = 0.0;
        } else {
            var98 = 3.0;
        }
    }
    double var99;
    if (input[1] <= 0.07960952073335648) {
        if (input[0] <= -0.09250593557953835) {
            if (input[7] <= 0.1953008472919464) {
                var99 = 1.0;
            } else {
                var99 = 4.0;
            }
        } else {
            var99 = 4.0;
        }
    } else {
        if (input[0] <= -0.09250593557953835) {
            if (input[1] <= 0.41772760450839996) {
                var99 = 1.0;
            } else {
                var99 = 0.0;
            }
        } else {
            if (input[1] <= 0.46527546644210815) {
                var99 = 4.0;
            } else {
                var99 = 3.0;
            }
        }
    }
    return (var0 + var1 + var2 + var3 + var4 + var5 + var6 + var7 + var8 + var9 + var10 + var11 + var12 + var13 + var14 + var15 + var16 + var17 + var18 + var19 + var20 + var21 + var22 + var23 + var24 + var25 + var26 + var27 + var28 + var29 + var30 + var31 + var32 + var33 + var34 + var35 + var36 + var37 + var38 + var39 + var40 + var41 + var42 + var43 + var44 + var45 + var46 + var47 + var48 + var49 + var50 + var51 + var52 + var53 + var54 + var55 + var56 + var57 + var58 + var59 + var60 + var61 + var62 + var63 + var64 + var65 + var66 + var67 + var68 + var69 + var70 + var71 + var72 + var73 + var74 + var75 + var76 + var77 + var78 + var79 + var80 + var81 + var82 + var83 + var84 + var85 + var86 + var87 + var88 + var89 + var90 + var91 + var92 + var93 + var94 + var95 + var96 + var97 + var98 + var99) * 0.01;
}
